term_str,0,1,2,3,4,5,6,7,8,9,10,11,12,13,14,15,16,17,18,19,20,21,22,23,24,25,26,27,28,29,30,31,32,33,34,35,36,37,38,39,40,41,42,43,44,45,46,47,48,49,50,51,52,53,54,55,56,57,58,59,60,61,62,63,64,65,66,67,68,69,70,71,72,73,74,75,76,77,78,79,80,81,82,83,84,85,86,87,88,89,90,91,92,93,94,95,96,97,98,99,100,101,102,103,104,105,106,107,108,109,110,111,112,113,114,115,116,117,118,119,120,121,122,123,124,125,126,127,128,129,130,131,132,133,134,135,136,137,138,139,140,141,142,143,144,145,146,147,148,149,150,151,152,153,154,155,156,157,158,159,160,161,162,163,164,165,166,167,168,169,170,171,172,173,174,175,176,177,178,179,180,181,182,183,184,185,186,187,188,189,190,191,192,193,194,195,196,197,198,199,200,201,202,203,204,205,206,207,208,209,210,211,212,213,214,215,216,217,218,219,220,221,222,223,224,225,226,227,228,229,230,231,232,233,234,235,236,237,238,239,240,241,242,243,244,245
a,0.07532018,-0.006803859,-0.02692782,-0.12978496,0.0027019333,-0.105648346,-0.18132043,-0.07967993,-0.2198834,-0.14720634,0.13168637,-0.21052146,-0.124169916,0.0056689093,-0.014822064,-0.1113752,0.07977157,0.042228665,-0.11825788,-0.15022978,-0.035622604,0.011791349,-0.0045313328,0.060163215,-0.060693588,0.0008019502,-0.038155254,0.04879793,0.0043052696,0.09138659,0.026946537,-0.12879272,-0.050853685,-0.040459365,0.025281373,-0.09283353,0.10179168,-0.046142794,-0.088942386,-0.15269333,-0.10794904,0.062104177,0.024237193,-0.03939413,-0.20168126,-0.035779454,0.22156093,-0.07253991,0.265099,-0.10125307,0.021650467,0.0202215,-0.09510114,-0.024608469,-0.114502184,0.11832967,0.20332225,-0.0019011857,-0.06527827,0.055475008,0.042611998,0.024177168,-0.3208753,-0.09966725,0.0013587048,-0.04922972,-0.0056546824,-0.14272694,0.30679992,0.09693231,0.09061054,0.025561195,-0.22050418,-0.09008164,0.011692226,0.021725388,0.082628995,-0.027768726,-0.04788269,0.013436539,0.096397296,-0.025355428,0.05526853,-0.021095203,0.052604564,0.06822538,0.02674219,-0.1915269,-0.026789218,0.10537074,0.11773329,0.0014913584,-0.0022338033,-0.020186078,0.094432116,0.22093941,-0.1899265,0.019414274,-0.134194,0.081178114,0.12715812,0.12932295,0.06023844,0.03291048,0.091826126,-0.08142079,0.04422237,0.13865301,-0.11337685,-0.18358992,0.00091610936,0.08352194,0.10227353,-0.2398164,0.018888345,0.28386754,-0.012661624,0.09047608,-0.017484238,-0.1184255,0.054500766,0.071191296,-0.2112077,0.12128426,-0.2267842,0.052958935,0.10178358,0.22692242,0.034882158,-0.0033197203,-0.023786005,-0.0051735006,-0.06088778,-0.04357619,-0.07158602,-0.016284201,0.115150906,-0.055351958,0.004768671,0.07531011,0.044856682,-0.09194743,-0.16954981,-0.0066598,0.06003486,0.093785234,0.09675952,0.1072589,-0.04036302,-0.03775146,0.12986933,0.05733306,-0.005678555,0.08797726,-0.18735002,-0.04375631,-0.13053161,-0.011427795,-0.13465337,0.13074017,0.017627787,-0.0009378942,-0.041890122,-0.077328846,-0.2117676,0.22436352,0.0149064185,-0.030028977,-0.07559792,0.16097519,-0.09104751,-0.008377848,0.05628667,0.12051811,-0.0043774224,-0.15582855,0.083975285,0.0046305764,0.020959493,0.026757224,0.123545766,-0.026619101,-0.062015053,0.042645536,0.13696235,0.09237641,0.12057927,-0.05261621,-0.030438082,0.018875975,-0.11545424,0.03194991,0.088236,0.03612985,0.03921303,0.05700835,-0.10577378,-0.15872683,0.025425682,0.04573097,0.00628118,-0.026866375,-0.071888424,0.11898508,-0.018869992,0.0053334488,0.060255054,-0.1219463,0.04048733,0.017881352,-0.027994856,-0.08849239,0.10391086,-0.26634458,0.16034673,-0.12722647,0.00064093695,-0.104141444,-0.22981112,0.10536069,0.14400867,0.0035181278,-0.04299472,-0.0865207,-0.20233096,-0.05211344,0.1884688,0.07352541,0.02392978,0.16635336,0.091994,-0.08365791,-0.0013654768,0.05858907,-0.21438205,-0.04011219,-0.059160966,0.068541616,0.023680354,0.12849689,-0.012533804,-0.09401495,0.0036708687,0.01692442,-0.009063873,0.08424348
about,0.098640576,-0.16068971,-0.043334723,-0.04222558,0.01818858,-0.11595086,-0.27417034,-0.07144616,-0.20671204,-0.144715,0.2348163,-0.124470234,-0.18586512,-0.0019919493,-0.003035681,-0.15980545,0.08808129,0.044799857,-0.052523173,-0.16747999,0.031051623,-0.0631549,-0.028964711,0.17413998,-0.11447162,0.077661805,-0.03938978,0.09404009,0.032031294,0.17293963,0.060980212,-0.10761973,0.023088,-0.049434755,0.0186,-0.07586958,0.07585472,-0.010031756,-0.06770689,-0.070437744,-0.08394244,-0.026295887,-0.008028598,0.04446537,-0.13474588,-0.0059654303,0.07357234,-0.07245875,0.052175462,0.044909373,-0.08112231,-0.013410665,-0.016089585,0.013636658,-0.07858217,0.056322023,0.25690436,-0.09205464,-0.10146566,0.13770783,-0.03069514,0.07106426,-0.2671887,-0.12033232,-0.012720665,-0.15022364,0.07525877,-0.043928523,0.271687,0.102013946,0.12809971,0.022912292,-0.24367367,-0.10325828,-0.038395163,0.088173665,0.103311256,0.012440716,-0.024022449,-0.005714714,0.11472574,0.041729644,0.124691464,-0.07141748,0.12305872,0.0860475,0.01475943,-0.18615018,-0.0074227396,0.21045402,0.15139198,-0.049673114,-0.064872146,-0.07786044,0.22893046,0.2724644,-0.22160602,0.028808037,-0.18221918,0.037345923,0.053588767,0.1938283,0.12126557,0.0065824795,0.028032767,-0.0058869356,0.15059347,0.14324573,-0.09356273,-0.18407407,0.032133892,0.09064353,-0.033101257,-0.1544598,-0.0064630853,0.19122097,0.03711003,0.1069262,-0.030755438,-0.048063714,0.02181595,0.08591277,-0.19481179,0.030601455,-0.14974186,0.11846573,0.14868125,0.22919713,0.06514648,0.07277133,-0.011349637,-0.006574206,-0.01273049,-0.0036203354,-0.0235936,0.024606606,0.029636342,-0.06029322,0.046618924,-0.033031974,-0.0013729786,-0.09595891,-0.17390132,-0.043429404,0.06415631,0.13551694,-0.02175519,0.13509084,0.03222608,-0.09362149,0.08225017,0.03751419,0.0066884346,0.19679616,-0.22572668,-0.008082142,-0.040482562,-0.0018818025,-0.13110743,0.13321471,0.02054801,0.099868335,0.06359523,-0.0928822,-0.16341713,0.21380247,0.089762345,-0.12173926,-0.056497775,0.20785192,-0.12517436,-0.022194482,0.039023846,0.123331815,-0.0014066907,-0.05901739,0.021749435,0.04720583,0.10189627,0.116123386,0.12190057,-0.10084881,-0.09269573,0.101712495,0.09986861,-0.012605125,0.17821886,-0.10357138,-0.023099117,0.06906038,-0.13144107,-0.009746988,0.09540833,0.017144002,-0.03528973,0.120145485,-0.10248083,-0.17032953,-0.0017794411,0.061584737,-0.0040820604,-0.06466639,-0.033901855,0.1628379,-0.078872845,-0.015851298,0.033642456,-0.14946575,0.007783459,0.0043704966,-0.03678033,-0.050102085,0.07243446,-0.2820504,0.12377722,-0.1186331,-0.028287524,-0.04302837,-0.26939783,0.0063526086,0.21049665,-0.05911823,-0.08482149,-0.0019422338,-0.12518626,-0.13392591,0.17095998,0.14347924,-0.038402025,0.24582027,0.06194842,-0.04415288,0.013475594,0.043567833,-0.17322181,0.0441415,-0.111012824,0.09040451,-0.08130536,0.033766456,0.010228511,-0.16297604,-0.008895849,0.0035851193,0.10750479,0.11573991
again,0.0740214,-0.06642359,-0.036781754,-0.099363066,0.0024493644,-0.10653709,-0.22064422,-0.056485947,-0.21066383,-0.16286792,0.16792843,-0.18399023,-0.13609962,0.010793628,-0.01636053,-0.1294576,0.099739105,0.033313684,-0.082843974,-0.14860821,-0.020682013,-0.029255802,-0.008271577,0.10489149,-0.071543545,0.029911837,-0.030227432,0.046997547,0.0078358855,0.115455694,0.058205023,-0.10883887,-0.036625702,-0.065390736,0.030060997,-0.098551966,0.08969001,-0.029185856,-0.09927754,-0.135954,-0.11235642,0.021803532,0.010141974,-0.010940042,-0.18604428,-0.030359793,0.21570334,-0.097941466,0.2121951,-0.07734134,-0.010368957,-0.0012873877,-0.07281498,-0.018416423,-0.1076846,0.11323146,0.22091234,-0.050044023,-0.08414902,0.07545351,0.016679645,0.03357606,-0.2919133,-0.0961613,-0.017894132,-0.067934446,0.042028937,-0.1002524,0.27417266,0.09447793,0.109049514,0.032102577,-0.2168037,-0.0723997,-0.011133741,0.04219136,0.11130218,-0.00052525214,-0.05160851,0.021292325,0.10224437,0.010812484,0.07658031,-0.055324,0.06539475,0.072977155,0.022782076,-0.19002452,-0.029004943,0.1277969,0.1269327,-0.032039057,-0.0044820495,-0.05301904,0.14090243,0.23192064,-0.19234514,0.032629658,-0.14541273,0.08393873,0.09774558,0.14919238,0.05724447,0.030427326,0.074574865,-0.04241315,0.08269282,0.12630887,-0.1254128,-0.17481048,0.013782158,0.09185994,0.06370242,-0.22742826,-0.00023126995,0.2663623,-0.00995295,0.10313987,-0.016471474,-0.087739885,0.018238127,0.06601245,-0.2154641,0.08562619,-0.18445589,0.058739193,0.10003907,0.22898509,0.04586055,0.024866737,-0.03350093,-0.0071557667,-0.032019537,-0.026444305,-0.046312507,0.011989884,0.07774252,-0.054697942,0.019388072,0.046163008,0.041845158,-0.08352633,-0.17121439,-0.038510635,0.043081254,0.09212058,0.044351038,0.10845311,-0.022901533,-0.057299126,0.108214356,0.04874865,-0.008953074,0.10613437,-0.18772851,-0.019731859,-0.097724676,-0.00068802515,-0.11967829,0.14468761,0.013202873,0.03606819,-0.009434465,-0.07940128,-0.17535523,0.20765541,0.026481345,-0.05686255,-0.08180229,0.16566154,-0.097959146,-0.016973486,0.05680062,0.10466496,0.009420294,-0.1273197,0.064572364,0.031094471,0.055512317,0.058951575,0.1289765,-0.04516619,-0.07767928,0.066274546,0.10781229,0.055733807,0.14362766,-0.06323257,-0.03294698,0.031345874,-0.12557994,0.022111308,0.08537083,0.026611356,0.009283657,0.07371792,-0.11097532,-0.15146331,0.041141756,0.03927986,0.013509229,-0.02701163,-0.04356734,0.122601345,-0.035599973,-0.008197727,0.058643334,-0.12556498,0.013881726,0.009590904,-0.020063352,-0.064850345,0.098092444,-0.26601675,0.15069826,-0.122512214,-0.017548984,-0.09559082,-0.24199073,0.06677621,0.174918,-0.00904614,-0.076156065,-0.06318048,-0.17989175,-0.062400598,0.19888265,0.10340992,0.0007117412,0.207063,0.06284451,-0.059270266,0.017104669,0.056446373,-0.21989985,2.179443e-05,-0.08678924,0.06964886,-0.027853291,0.09584865,-0.01897266,-0.14758463,-0.006319575,0.023444181,0.026291613,0.09358501
ai,0.02396348,-0.07857368,-0.075205356,-0.07438327,0.046819687,-0.13562278,-0.2933573,-0.083357476,-0.19508758,-0.13045038,0.18536663,-0.113576986,-0.1043569,-0.0052045006,-0.0044691674,-0.15146753,0.08598944,0.03627397,0.027262105,-0.12239739,0.026735071,-0.09110763,-0.016460368,0.14995739,-0.09504113,0.094322644,-0.0130081605,0.0032445986,0.0127307465,0.103971906,0.07787078,-0.046497464,0.04779285,-0.068707995,0.0024737578,-0.06891364,0.10169204,0.011657109,-0.14725421,-0.11211924,-0.040131547,-0.062233612,-0.010954726,0.042958234,-0.12985624,-0.026335154,0.17187914,-0.17048766,0.09163961,-0.050639328,-0.051531352,-0.021111703,-0.026339946,-0.02637489,-0.13007931,0.10607622,0.20217155,-0.070755005,-0.082118444,0.1019546,-0.05774216,0.010845014,-0.19877745,-0.120793045,-0.06936366,-0.11141746,0.08486452,0.004436555,0.20260164,0.07523371,0.13483936,0.048584606,-0.17661694,-0.03442235,-0.04135956,0.10199895,0.11014333,0.04641857,-0.028579585,0.028206486,0.09729212,0.09047732,0.09576676,-0.05264725,0.11492092,0.09221779,-0.0038917202,-0.13523148,0.041263506,0.115060955,0.14312851,-0.107185386,-0.0718237,-0.09858659,0.19957007,0.20718059,-0.23620114,0.06400667,-0.13614105,0.052402925,0.036528066,0.15307164,0.06346588,0.043441728,0.045402538,-0.010921171,0.16209473,0.15229234,-0.14375396,-0.17331287,-0.0029297885,0.09535527,-0.045991737,-0.19072852,-0.027328162,0.15051684,0.0013140416,0.078982934,-0.041492052,-0.055965357,-0.051643237,0.15691398,-0.18101014,0.07442757,-0.14223644,0.1308159,0.07291298,0.15912268,0.05692743,0.07440399,-0.04830564,-0.017788114,0.008111793,0.021623725,-0.006604384,0.11130816,-0.04259222,-0.04243231,0.03303135,-0.035517048,0.059641723,-0.07167803,-0.1357345,-0.05735846,0.07651449,0.10230562,-0.058400564,0.07722088,0.079264365,-0.12787026,0.06156049,-0.009845543,-0.020388793,0.15303639,-0.1749072,0.027347634,-0.032813307,0.089001216,-0.109816186,0.14092065,-0.017166313,0.068986975,0.08219155,-0.07052891,-0.08567151,0.13351163,0.049570322,-0.17569059,-0.06594924,0.09197837,-0.10845811,-0.036370676,0.051736537,0.10744758,0.028015872,-0.08395244,-0.013047953,0.03682352,0.09889191,0.12060774,0.06908709,-0.053911913,-0.07755145,0.09777862,0.018913407,-0.00678694,0.1361611,-0.10160028,-0.046687033,0.045441147,-0.16756171,-0.04285031,0.07530263,0.08086675,-0.06526091,0.07409129,-0.039569795,-0.13535666,0.08687218,0.03591813,0.006415739,-0.029435968,-0.026799884,0.11171984,-0.025554726,-0.012157611,0.015648602,-0.1448507,-0.023272695,-0.0077408794,0.0041866293,-0.02255391,0.0830272,-0.3013366,0.14264956,-0.11982971,-0.005487019,-0.051865682,-0.20432454,0.016379122,0.17546827,0.00020523081,-0.08480805,-0.026220841,-0.16415249,-0.08628813,0.15922712,0.15617427,-0.03074708,0.30165982,0.018205501,-0.01111452,0.022357812,0.06716284,-0.16622955,0.03542082,-0.12537235,0.043788746,-0.06272296,-0.02592219,1.9813844e-05,-0.19163212,-0.028367417,-0.012828426,0.10704529,0.15828517
all,0.081883565,-0.018489802,0.005129546,-0.12881666,0.017862128,-0.10907279,-0.15982208,-0.074969135,-0.19581874,-0.15527113,0.12423593,-0.21240662,-0.14371094,-0.0013770552,-0.019377291,-0.09569001,0.07598763,0.04010782,-0.12173568,-0.1458699,-0.0505496,0.016109403,-0.015313484,0.056776073,-0.04516593,-0.0015868052,-0.04156108,0.05178189,-0.0029979595,0.09114579,0.046061028,-0.12718748,-0.05069083,-0.030102924,0.026026089,-0.09319166,0.080968626,-0.060977675,-0.064945556,-0.15660955,-0.1130334,0.052760072,0.015675386,-0.041875035,-0.20341314,-0.018776607,0.22454488,-0.042443074,0.25243938,-0.09799729,0.017192902,-0.0016206127,-0.084717676,-0.032579727,-0.102389336,0.11932907,0.19137949,-0.026906364,-0.054887265,0.06035187,0.048953086,0.035737082,-0.31870916,-0.0797342,0.024090733,-0.049239002,-0.00042734577,-0.14172795,0.29115418,0.11092294,0.086462334,0.003982614,-0.20990118,-0.11576422,0.012616248,0.030388001,0.08800272,-0.02984953,-0.065365106,0.008206943,0.08533571,-0.030439923,0.06364553,-0.025871394,0.028960563,0.048108622,0.038466524,-0.18536107,-0.033292405,0.12715764,0.11894357,0.005219421,0.0056995274,-0.009765359,0.08314023,0.22425807,-0.15711384,0.023679763,-0.1475247,0.080693185,0.12119932,0.1103965,0.042838857,0.032493096,0.068331614,-0.07879523,0.041569967,0.10815986,-0.108507216,-0.1627935,0.012659286,0.08542025,0.10976997,-0.2089861,0.015627127,0.28141227,-0.024167873,0.10575704,0.013250062,-0.109484054,0.0905886,0.04827209,-0.2138252,0.108383454,-0.20482348,0.052834354,0.08522146,0.21385048,0.03006884,-0.00632082,-0.026023876,-0.0057628118,-0.047038306,-0.0489949,-0.06798596,-0.029739851,0.114308156,-0.04236676,0.0014111715,0.09444367,0.051987953,-0.093821004,-0.15696357,-0.028948195,0.035370894,0.088711776,0.10386623,0.12146908,-0.049819034,-0.02651998,0.11606998,0.06641244,-0.0008403569,0.080251515,-0.20519857,-0.058294676,-0.12595885,-0.024991425,-0.13232501,0.124428324,0.003997589,0.010204499,-0.059112642,-0.07808196,-0.21597682,0.21745354,0.026348284,-0.010990789,-0.07480774,0.17155626,-0.08972724,-0.009581979,0.060701642,0.103672326,0.0061303703,-0.14436357,0.066940494,0.008112718,0.026874153,0.02778738,0.13959001,-0.026113005,-0.061958253,0.036881648,0.15527749,0.08108951,0.122449346,-0.031528875,-0.049189232,0.025819615,-0.09903953,0.04443452,0.09760529,0.027420262,0.05670622,0.06947783,-0.112921976,-0.14699402,0.00063270435,0.055928003,0.021962965,-0.0379042,-0.05243111,0.09569628,-0.019725772,-0.008531474,0.048794653,-0.11803292,0.03144061,0.0425581,-0.02896288,-0.08910994,0.10057916,-0.25145924,0.16690625,-0.111975886,-0.021017374,-0.08963439,-0.21947518,0.087579265,0.1382673,-0.009104057,-0.040990554,-0.08411621,-0.18959847,-0.059688836,0.18973354,0.06994177,0.007228108,0.15057468,0.09965488,-0.079472624,-0.010418188,0.057939555,-0.24068612,-0.029271321,-0.044119675,0.0651725,0.009832725,0.12704434,-5.9008024e-05,-0.09911099,-0.007515038,0.012117267,0.0019251888,0.086686656
alone,0.08000215,-0.084041744,-0.044567533,-0.08961115,0.0014071524,-0.109964,-0.23170947,-0.052851513,-0.22148947,-0.1529533,0.17530115,-0.19104725,-0.14822698,0.019557305,-0.019285057,-0.13247216,0.09606497,0.036092848,-0.07784801,-0.15703028,-0.0101142265,-0.03534679,-0.01740199,0.12467958,-0.08338898,0.037111584,-0.03182651,0.055638842,-0.0013664364,0.11738921,0.07108506,-0.119624674,-0.035442397,-0.067064926,0.0463796,-0.10217372,0.09390856,-0.024717912,-0.11119259,-0.14210466,-0.1261573,0.010971478,0.013670377,-0.0065907976,-0.19697073,-0.032629415,0.21990648,-0.10718852,0.20978393,-0.07109138,-0.025683012,0.00043264905,-0.068597876,-0.016150542,-0.1088374,0.10601515,0.22616452,-0.052143026,-0.10043836,0.08753473,0.009378473,0.042318556,-0.29875842,-0.08572466,-0.024107857,-0.07840125,0.040817313,-0.08926826,0.28381237,0.10488902,0.100972556,0.026291937,-0.21662734,-0.08603169,-0.020930279,0.050633904,0.11435883,0.00046484667,-0.042119995,0.023841722,0.1164618,0.012089027,0.07779543,-0.06726084,0.08206884,0.0860398,0.036491983,-0.19267094,-0.02421881,0.14091554,0.1366868,-0.028464993,-0.014759538,-0.064417295,0.16016243,0.2592169,-0.20030913,0.037186384,-0.1555552,0.07775101,0.08920195,0.17481638,0.07023501,0.023136245,0.073193245,-0.036567602,0.093937635,0.14003429,-0.122100666,-0.18022493,0.0183649,0.09467619,0.05425694,-0.22451524,-0.00017932318,0.27901626,-0.009865453,0.110752426,-0.013158199,-0.08802268,0.031317566,0.06944581,-0.2311774,0.09051964,-0.1961581,0.06748173,0.106772564,0.24325384,0.03522365,0.03377639,-0.029439552,-0.021165736,-0.03186407,-0.0208332,-0.04881929,0.0028826953,0.07829867,-0.059240356,0.024672665,0.03450707,0.030412436,-0.08556909,-0.18123998,-0.031033315,0.03876758,0.09977571,0.03722093,0.11865852,-0.015192194,-0.06659062,0.11104905,0.04749455,-0.012635642,0.11440078,-0.20500444,-0.022443257,-0.09000742,0.003367442,-0.13144702,0.1458462,0.012857067,0.042054065,-0.00042903892,-0.089613006,-0.18277554,0.19955763,0.026774043,-0.06559389,-0.0834289,0.18071948,-0.10277598,-0.014855961,0.059576575,0.11217433,0.00013344474,-0.11606024,0.057121694,0.03209605,0.06539543,0.06419964,0.12924805,-0.05087518,-0.084767856,0.07444629,0.10721387,0.050707117,0.15645295,-0.06262264,-0.02865842,0.025491778,-0.12428936,0.017802188,0.08791961,0.02832373,-0.003704725,0.069928996,-0.12230109,-0.15960245,0.03050867,0.036741544,0.0073600486,-0.03302988,-0.03590233,0.13396274,-0.051823508,-0.00689091,0.056360256,-0.13683008,0.0021265717,0.0043516126,-0.019812834,-0.05558716,0.094565414,-0.28160468,0.14967994,-0.13121828,-0.013644301,-0.086330295,-0.25604248,0.058249556,0.18810432,-0.018273499,-0.08197416,-0.05850795,-0.17682706,-0.07948451,0.20694174,0.110891946,-0.010865264,0.22230843,0.06533289,-0.06594808,0.009417085,0.05762669,-0.22156909,0.004409258,-0.091395184,0.07255672,-0.038025796,0.09674607,-0.012905133,-0.15547265,-0.015441929,0.02193583,0.037854422,0.084420934
alright,0.084334195,-0.14016706,-0.045667745,-0.011012788,0.0075615784,-0.06518012,-0.20398042,-0.009110616,-0.16866969,-0.120037094,0.20320866,-0.11440669,-0.15463318,0.045675218,-0.023921939,-0.08075123,0.05526951,0.03192599,-0.034623105,-0.13917272,0.009659517,-0.074174605,-0.044787496,0.119685814,-0.0798803,0.0677476,-0.04308367,0.07909646,-0.015157894,0.12000151,0.108742535,-0.078028604,-0.031651217,-0.07928434,0.058634017,-0.10220057,0.09281302,0.004668635,-0.10528063,-0.107806765,-0.112991534,-0.022062846,-0.023351377,0.0370848,-0.16073532,-0.030974027,0.17306432,-0.10960586,0.11437794,-0.010608133,-0.064403236,-0.021236626,-0.02851245,0.018948484,-0.07346923,0.05783986,0.21981719,-0.07872118,-0.123408504,0.09739741,-0.022422982,0.0718995,-0.23375525,-0.062308833,-0.021310283,-0.10304466,0.0665963,-0.03998393,0.20642093,0.0670916,0.07424818,0.020502191,-0.15287,-0.090430014,-0.04069577,0.08438669,0.11193165,0.028702516,-0.004810407,0.021058543,0.093571365,0.011420617,0.105147645,-0.08772877,0.09975273,0.08923764,0.04147802,-0.17496195,-0.01758841,0.1533395,0.12734874,-0.049481057,-0.041566547,-0.10947855,0.19135618,0.26286423,-0.1557306,0.033189915,-0.18310255,0.049781766,0.057651762,0.20256028,0.08305608,0.017008325,0.023336949,-0.001970259,0.12503393,0.102762796,-0.105983526,-0.16583315,0.033374354,0.09555165,0.02093777,-0.1640346,-0.020232748,0.24029735,0.0050946493,0.10347123,0.00023039417,-0.050444994,0.026832866,0.04416876,-0.21090779,0.040143836,-0.10604039,0.0652815,0.11317937,0.22282112,0.035242654,0.042165138,-0.02011565,-0.03433631,-0.007980814,-0.0019934622,-0.021658707,0.01593326,0.07038355,-0.0579433,0.052829716,0.0068508233,-0.0086764945,-0.07329357,-0.1651784,-0.03627057,0.02910038,0.07468702,-0.044419855,0.11758392,0.00987625,-0.069906354,0.08821036,0.038609624,-0.015080837,0.12941091,-0.17720486,-0.0070383525,-0.041770417,0.0136177,-0.103554025,0.112630814,0.029507238,0.07634401,0.03984811,-0.099950224,-0.13242207,0.15670748,0.02798144,-0.075771086,-0.07438081,0.18177184,-0.088018626,-0.017150255,0.0466264,0.104135506,-0.017082272,-0.030351795,-0.0009906787,0.065224186,0.10166804,0.08910459,0.14309892,-0.070557505,-0.10325473,0.09806485,0.06704709,0.013962099,0.12936117,-0.052924223,-0.0040759793,0.023588507,-0.09847205,-0.016688664,0.081561774,0.011321111,-0.029308775,0.056674086,-0.13207354,-0.15391003,0.03439873,0.036511075,-0.0034175476,-0.03636487,0.006988837,0.15200499,-0.091388255,-0.046338934,0.042406075,-0.11730611,-0.038596775,-0.004248865,-0.01163284,-0.013552711,0.07784921,-0.22189726,0.10352011,-0.12548858,-0.033928476,-0.057501096,-0.24823774,0.024845857,0.20088771,-0.06637599,-0.09872388,-0.02279871,-0.097811885,-0.10605231,0.17506789,0.11083437,-0.04695869,0.19933958,0.04226329,-0.053227484,0.024929564,0.035491165,-0.17765078,0.03900309,-0.07723616,0.108672366,-0.07927913,0.05588432,0.0058104177,-0.18736435,-0.014104678,0.0133704785,0.07491279,0.047302384
always,0.06779273,-0.06783873,-0.03231458,-0.09718544,-0.025652606,-0.09771985,-0.24387467,-0.037685566,-0.20701295,-0.16611838,0.15970965,-0.1740048,-0.11829739,0.013265989,-0.03100953,-0.15162107,0.114033505,0.027502853,-0.09171844,-0.12605083,-0.0043868986,-0.048018374,0.004053197,0.108251415,-0.087155856,0.03825778,-0.013828693,0.041775595,0.02600521,0.12641487,0.053755507,-0.09859448,-0.02415451,-0.079554334,0.047685105,-0.09903783,0.08682591,-0.007216316,-0.11854357,-0.12095887,-0.11281571,0.004725896,0.024386827,0.00054537074,-0.17739098,-0.041740797,0.21540467,-0.114740714,0.21931742,-0.0929913,-0.0065530646,0.0072638206,-0.06705596,-0.020106029,-0.11503393,0.09780293,0.20908538,-0.042032257,-0.061557677,0.05515468,0.02574406,0.026963903,-0.27620488,-0.07395177,-0.027239174,-0.052090842,0.04254092,-0.08213162,0.25954613,0.09256011,0.09786806,0.033584822,-0.2170066,-0.05473485,-0.020274205,0.023767762,0.11984523,0.011068694,-0.05601818,0.025966598,0.103277385,0.025050933,0.04683353,-0.048339576,0.06303396,0.083943,0.017916242,-0.1970846,-0.02556243,0.099888526,0.107459486,-0.022532497,-0.0085222,-0.05374823,0.14084597,0.21911079,-0.20377818,0.019100102,-0.12480042,0.09348882,0.09255235,0.1540742,0.057118855,0.015231486,0.10179997,-0.03836589,0.05409197,0.106651604,-0.12285725,-0.17119919,0.012003539,0.08237617,0.05852738,-0.2191927,0.005108934,0.26606724,-0.013207281,0.11526234,-0.02775194,-0.082083374,-0.002254268,0.05186487,-0.18633494,0.07281773,-0.18399325,0.028196853,0.100727856,0.21717769,0.03740989,0.019149633,-0.038480405,0.0007843526,-0.03504249,-0.035712957,-0.04984419,0.0075784004,0.0674066,-0.06508654,0.028614141,0.028922085,0.056066953,-0.08755919,-0.15502065,-0.039200857,0.03249844,0.08157219,0.035069868,0.08567892,-0.03140917,-0.065854855,0.10171008,0.03984108,-0.0053196396,0.09792833,-0.16536324,-0.0023162912,-0.10453525,0.011938912,-0.10793588,0.16128702,-0.0018784491,0.043944117,-0.020718245,-0.07054736,-0.15256472,0.19059506,0.0060891146,-0.06347314,-0.07599559,0.1569997,-0.07906916,-0.014623865,0.056369655,0.09569781,0.00479566,-0.14753358,0.08100824,0.040641047,0.05071128,0.04388143,0.12993743,-0.03389976,-0.064053185,0.056671966,0.09752647,0.052998748,0.1432262,-0.06678257,-0.019415598,0.001694328,-0.10592908,0.0464815,0.0721285,0.019440625,0.0034341896,0.05364436,-0.10758189,-0.119816914,0.046966188,0.022400139,0.022874555,-0.017934404,-0.040090803,0.115804575,-0.014715946,0.008156258,0.06589477,-0.12885037,0.006020011,-0.014194779,-0.035431538,-0.05319383,0.08631603,-0.24665956,0.13511132,-0.10785319,-0.0003500966,-0.08749418,-0.21785508,0.06524924,0.16681273,-0.0025186425,-0.088258795,-0.0543902,-0.16953027,-0.031393558,0.18784109,0.085224465,0.0027670728,0.19756766,0.055542056,-0.040493216,0.017903369,0.046295535,-0.18708563,0.00572019,-0.09757138,0.07055262,-0.038130157,0.09796434,-0.042747397,-0.13759975,-0.00034272886,0.051830698,0.0053769085,0.07303746
am,0.06953772,-0.07315868,-0.042961948,-0.094419874,0.009646906,-0.10542945,-0.22785486,-0.059486713,-0.21012636,-0.14780632,0.16834481,-0.1907271,-0.13471937,0.0073351073,-0.015322505,-0.12306156,0.09552862,0.032914717,-0.065728694,-0.14639953,-0.010859934,-0.03746749,-0.014211432,0.111194015,-0.08567945,0.037718613,-0.03448834,0.046230365,0.011697006,0.115626715,0.068941236,-0.111547865,-0.026267514,-0.06721635,0.03873685,-0.08599139,0.08778855,-0.027078833,-0.11410237,-0.13769001,-0.10924054,0.008085704,0.015466267,-0.009028803,-0.1758561,-0.030746002,0.20822388,-0.10849437,0.20786999,-0.06957444,-0.026003577,-0.0019496427,-0.069953404,-0.010533448,-0.10686605,0.096488744,0.209868,-0.052667703,-0.083857276,0.074305736,0.0092229415,0.03742387,-0.278128,-0.08718672,-0.022638198,-0.074576795,0.03425729,-0.08802582,0.25712004,0.09895212,0.09839195,0.024199547,-0.21304882,-0.07879486,-0.01833663,0.049928006,0.10748789,0.005728953,-0.038495217,0.021522455,0.11182286,0.023015691,0.06778656,-0.05429209,0.08395429,0.07919468,0.03081807,-0.1820312,-0.025528748,0.12704901,0.12580647,-0.034531362,-0.010760646,-0.06598354,0.15367389,0.22937416,-0.19526328,0.03631062,-0.13857912,0.07301371,0.08448816,0.16250958,0.072799556,0.025074417,0.0799681,-0.035214443,0.08841633,0.13595222,-0.12398831,-0.17588966,0.020564364,0.08988445,0.05382335,-0.2172499,-0.011561647,0.25767785,-0.0078290235,0.10899399,-0.012474453,-0.07429941,0.013073894,0.08201902,-0.20831434,0.092242725,-0.17728832,0.06454895,0.0982354,0.22128578,0.040306356,0.033113085,-0.02890246,-0.016370341,-0.026132321,-0.021393126,-0.042419054,0.0059456215,0.064058214,-0.05881523,0.023052244,0.033427954,0.027453514,-0.07961049,-0.16300146,-0.029799774,0.044304032,0.09516787,0.026402181,0.10599045,-0.009040668,-0.06843663,0.10344208,0.035538796,-0.0057759886,0.10254788,-0.18718609,-0.016474523,-0.09206289,0.017193375,-0.12671728,0.14133367,0.011953845,0.0399918,0.0057152575,-0.08322699,-0.16593963,0.19031145,0.026697526,-0.072815746,-0.082665734,0.16110492,-0.092958726,-0.015937898,0.055376507,0.10538045,0.006630789,-0.11522803,0.05729893,0.028045867,0.054461118,0.063007034,0.11947138,-0.05285318,-0.07341652,0.07007577,0.09668731,0.038344476,0.1410948,-0.059534825,-0.024624657,0.021420017,-0.11301869,0.013078341,0.07030541,0.029327279,-0.007741658,0.058219712,-0.10343059,-0.14663813,0.040194336,0.03932416,0.005037617,-0.032450777,-0.044093747,0.13145393,-0.046413735,-0.009905536,0.055866886,-0.13332042,0.0073672836,0.010361785,-0.019184416,-0.055204935,0.09271922,-0.27117467,0.13773197,-0.12297239,-0.022274971,-0.08817778,-0.23599535,0.053119607,0.17079325,-0.017418576,-0.07267107,-0.05234632,-0.1793708,-0.074621625,0.18743142,0.10866017,-0.008412292,0.21013752,0.06142892,-0.05491556,0.00681234,0.055514183,-0.19858225,0.004938081,-0.09582119,0.072415136,-0.030513048,0.079695776,-0.010412202,-0.14652127,-0.012100912,0.02494973,0.0338521,0.08638505
and,0.06925186,-0.0020110067,-0.0125292,-0.12761068,0.003112627,-0.107081585,-0.15005998,-0.07313228,-0.20201081,-0.14468122,0.11988409,-0.21238397,-0.118039094,-0.0022125659,-0.0107217515,-0.09556447,0.085354,0.04035966,-0.112254426,-0.14961901,-0.038216107,0.02086177,-0.009114304,0.05617284,-0.04818978,0.009851669,-0.04240263,0.04898929,-0.004273328,0.081439026,0.03985704,-0.12607403,-0.046530563,-0.03174911,0.030883787,-0.09164761,0.09101554,-0.04869072,-0.08594281,-0.1712733,-0.11319599,0.056923334,0.018202506,-0.043848474,-0.20577653,-0.024952954,0.22629389,-0.06788215,0.2564197,-0.10855258,0.014248862,0.021141075,-0.08834816,-0.032488227,-0.10426809,0.10715889,0.19263253,-0.010609016,-0.07267338,0.06271933,0.048128538,0.010203896,-0.31978214,-0.08846279,0.010338118,-0.05588264,-0.005638848,-0.14064294,0.29424638,0.09615178,0.08543112,0.013385946,-0.21125488,-0.11029358,0.0042788954,0.02535152,0.096315295,-0.026929151,-0.04621957,0.015013254,0.10225111,-0.020947086,0.061648063,-0.021463022,0.05713064,0.061149515,0.032739386,-0.18953338,-0.039131902,0.11331528,0.118973196,0.0059800497,0.0025241938,-0.027177786,0.08840952,0.22667839,-0.17024891,0.02661952,-0.12920223,0.07970726,0.113480434,0.1193919,0.04786016,0.037002522,0.07368731,-0.07368331,0.04268916,0.1354644,-0.117949344,-0.16859175,0.0091165695,0.070664555,0.10941437,-0.23211895,0.019593755,0.2890926,-0.022481373,0.08882694,-0.0039782813,-0.104737364,0.07486805,0.075821444,-0.21222357,0.12066552,-0.21372584,0.04717332,0.08552908,0.21754962,0.022995103,0.011355107,-0.024669118,-0.007966773,-0.061568175,-0.04317221,-0.0696071,-0.02435554,0.10890665,-0.051749777,-0.0055181803,0.089744635,0.04946524,-0.085970715,-0.16202348,-0.017932344,0.056489576,0.09706098,0.100098535,0.116060995,-0.0376299,-0.03448291,0.12793975,0.048958283,-0.010904468,0.07261933,-0.19745857,-0.048847925,-0.12184618,-0.01782661,-0.13070275,0.12551937,0.0130046755,-0.0016430452,-0.04868145,-0.079038635,-0.20838891,0.20551443,0.016039172,-0.02039355,-0.07206917,0.15974976,-0.09472766,-0.0077449656,0.060380973,0.10911845,-0.009198409,-0.1554349,0.07791065,0.012659866,0.019618757,0.023640033,0.12884124,-0.043184087,-0.07076486,0.05107529,0.13765492,0.07671893,0.124114186,-0.043747865,-0.039403982,0.028081711,-0.11028376,0.033042375,0.08370355,0.041121252,0.05687406,0.06594309,-0.098417565,-0.15878408,0.022260303,0.04177186,0.011600278,-0.03571242,-0.062923886,0.11220943,-0.021238957,0.0021548313,0.054217845,-0.12796403,0.031257894,0.026450928,-0.027664166,-0.0838722,0.09353263,-0.26876733,0.16515127,-0.12326099,0.002166813,-0.10206226,-0.23838745,0.09999961,0.13125116,0.002933888,-0.039524574,-0.087878674,-0.20510936,-0.061617285,0.18979229,0.07721705,0.012226414,0.16483764,0.09931132,-0.07541871,-0.012814615,0.055761963,-0.23817748,-0.034858543,-0.056529056,0.059300847,0.022242732,0.11558763,-0.012356746,-0.10636641,-0.0076945396,0.010339742,-0.007424612,0.08785707
are,0.09123372,-0.11993608,-0.04270945,-0.06132333,0.009117599,-0.078762755,-0.2341464,-0.045176513,-0.21844065,-0.15550758,0.20079994,-0.18020841,-0.16863257,0.03718457,-0.031719945,-0.09350656,0.07665534,0.043568764,-0.06483807,-0.15179427,-0.017256806,-0.055549037,-0.029219227,0.10794857,-0.091649696,0.02533869,-0.04594542,0.06949545,-0.0012748664,0.12902634,0.10986098,-0.09133508,-0.05128192,-0.08338265,0.067476384,-0.119203724,0.09910083,0.004499352,-0.099459946,-0.122086436,-0.12321044,0.01079353,-0.0036925643,0.033274006,-0.19199286,-0.040758666,0.22370677,-0.09953844,0.20132937,-0.05456496,-0.035562098,-0.002594216,-0.0541635,0.015254012,-0.088355534,0.09490449,0.22901265,-0.05692294,-0.115466334,0.085551575,-0.0031693997,0.078745365,-0.2807499,-0.073037155,-0.024967393,-0.08283168,0.059060514,-0.10213179,0.23832819,0.09280795,0.0829433,0.0027189623,-0.17506315,-0.077714056,-0.021374622,0.072423644,0.103166796,0.013171372,-0.024378534,0.016849486,0.11366341,-0.0017774805,0.09621992,-0.095560774,0.055860717,0.08488812,0.03369286,-0.20012695,-0.017693315,0.13987072,0.11642466,-0.022433326,-0.012374657,-0.07026108,0.13855214,0.25676903,-0.15026775,0.039377775,-0.16417503,0.071250185,0.085578546,0.18828763,0.072923236,0.0045776726,0.057562303,-0.026010001,0.0985617,0.122507304,-0.09986014,-0.16001624,0.027283601,0.09435849,0.068369046,-0.20513609,-0.009367975,0.2822232,-0.019235313,0.11364181,0.009379771,-0.07388417,0.02834466,0.045162465,-0.24538104,0.08075808,-0.13576724,0.062575884,0.09890144,0.24594735,0.039951485,0.013296756,-0.030253047,-0.022938365,-0.022073692,-0.017775493,-0.035233326,0.0038820105,0.08221097,-0.07072787,0.019050049,0.012391971,-0.0037414494,-0.08129526,-0.17822371,-0.023972802,0.04016054,0.067355946,-0.007926319,0.13656019,-0.017276786,-0.04403045,0.119273074,0.06791741,-0.014075569,0.11194571,-0.18783048,-0.021513265,-0.09379621,-0.0032682535,-0.119262114,0.14879356,0.013482026,0.052111953,0.008941614,-0.10956295,-0.16678552,0.19311021,0.023967871,-0.035835106,-0.0887636,0.18323536,-0.105000295,-0.010546975,0.04067898,0.111080274,0.004971882,-0.08459592,0.04097616,0.05199918,0.065208174,0.07705143,0.14190105,-0.040949337,-0.093281515,0.08334702,0.11821101,0.058404095,0.13025707,-0.029725395,-0.015701413,0.03313822,-0.107411236,0.019905847,0.08459706,0.015169144,-0.018599924,0.06526207,-0.15756778,-0.15898445,0.04507258,0.03407353,-0.0040331376,-0.03991765,-0.013953779,0.15095556,-0.0825381,-0.04562108,0.05256707,-0.12893543,-0.009383996,0.004696993,-0.010465836,-0.04452379,0.088436,-0.24173152,0.13468666,-0.12508771,-0.046418343,-0.089185454,-0.23785162,0.057508152,0.17729968,-0.024956249,-0.1122543,-0.03758742,-0.15544884,-0.066482484,0.19583082,0.09766948,-0.0212956,0.20581847,0.06412244,-0.04835873,0.021050114,0.038969822,-0.20322101,0.009412811,-0.07911197,0.09206482,-0.04737227,0.10013978,-0.0014899976,-0.16271995,-0.011702496,0.022511441,0.038800165,0.04662626
as,0.07083975,-0.04187427,-0.0055462364,-0.09318259,0.01042441,-0.09138122,-0.17728645,-0.05882326,-0.20994407,-0.1465059,0.14327785,-0.20524517,-0.14379305,0.015496169,-0.017198768,-0.10318091,0.08310648,0.02972708,-0.08675072,-0.1446235,-0.029613512,-0.007883167,-0.00770814,0.094665825,-0.06322275,0.028606553,-0.03612234,0.049095273,-0.0016196665,0.093551934,0.059779674,-0.12910229,-0.04133827,-0.053057037,0.036419746,-0.10186407,0.08928084,-0.035440635,-0.0858451,-0.15926927,-0.11705106,0.028251184,0.0052414965,-0.012479212,-0.19034691,-0.022798259,0.21869618,-0.07722313,0.23346138,-0.090946026,-0.0027775306,0.00375437,-0.07694164,-0.026172271,-0.095622115,0.10596426,0.19183479,-0.034267187,-0.0773697,0.06343592,0.023466915,0.024610449,-0.3090428,-0.07786535,0.0025611136,-0.067292355,0.029687367,-0.10959526,0.2816476,0.09953111,0.08004821,0.011778954,-0.19245093,-0.09458583,-0.00299579,0.04815226,0.10014982,-0.011121423,-0.040710084,0.027676715,0.10635639,-0.010952411,0.06890676,-0.05030945,0.053622328,0.07425723,0.044100374,-0.18573643,-0.043050375,0.12028246,0.11909581,-0.016375434,0.0025402417,-0.053645045,0.12020654,0.24123396,-0.17111227,0.035605382,-0.15867175,0.0756734,0.10225049,0.1471997,0.04486344,0.034339283,0.06543706,-0.0473096,0.06556584,0.1173548,-0.11708769,-0.16312222,0.0076714004,0.08905419,0.08930561,-0.2198797,0.0113851,0.2895953,-0.03136819,0.101103574,0.00226296,-0.089271285,0.059911624,0.04413743,-0.2225733,0.0942304,-0.1826086,0.054691523,0.085184425,0.23171224,0.03310018,0.016201144,-0.02314468,-0.0102058975,-0.036412433,-0.026189417,-0.057002146,-0.008208112,0.10345356,-0.058276072,0.015978906,0.06231169,0.040134855,-0.087306514,-0.1577898,-0.018753381,0.04244639,0.07674969,0.060500376,0.11556814,-0.020539757,-0.048646595,0.111580275,0.060029525,-0.013255632,0.07993269,-0.20473933,-0.035710096,-0.09727652,-0.0052235634,-0.13250381,0.13364391,0.012162712,0.02755688,-0.02392792,-0.090769686,-0.18923537,0.19409342,0.020599011,-0.041566744,-0.08107547,0.16362672,-0.10145235,-0.013150626,0.052684486,0.09936377,-0.008441385,-0.1295459,0.055894274,0.0254427,0.04894122,0.044927817,0.13635045,-0.046295103,-0.0757133,0.060585078,0.12335128,0.06861327,0.13143566,-0.05408528,-0.03661044,0.021991514,-0.11701727,0.021476496,0.093775764,0.027944209,0.019293886,0.053047407,-0.110446945,-0.1462074,0.018859228,0.04249924,-0.0033759277,-0.023953022,-0.0367956,0.12706642,-0.028790714,-0.017525857,0.0494985,-0.11878462,0.013372394,0.028488405,-0.014258694,-0.063924156,0.08887013,-0.26273134,0.14410861,-0.13116375,-0.008875059,-0.09144867,-0.24579978,0.06499909,0.16316076,-0.012689464,-0.06671591,-0.08615938,-0.18001541,-0.064422294,0.20178235,0.100173905,-0.010878334,0.17714934,0.08329189,-0.08073914,0.009290981,0.05653505,-0.23596685,-0.017427359,-0.073933765,0.074388385,-0.018745558,0.11898956,-0.0064803334,-0.13025989,-0.014594989,0.021366233,0.0064777154,0.087111525
at,0.08855263,-0.031965993,-0.03149277,-0.13679418,0.004828905,-0.10521372,-0.18322779,-0.06585629,-0.21810065,-0.15525891,0.14552648,-0.22629541,-0.14127667,0.009440502,-0.025332086,-0.10340417,0.08520242,0.032893263,-0.119641274,-0.1490891,-0.048828583,-0.0027702644,-0.010795417,0.06742292,-0.049858402,0.012483391,-0.051757425,0.046010546,0.0045675533,0.09783657,0.06594425,-0.12842666,-0.04377208,-0.04023262,0.049352616,-0.088895395,0.09300329,-0.04573049,-0.08616361,-0.16611996,-0.12780282,0.054128956,0.018981019,-0.024263462,-0.2200328,-0.03641582,0.23174562,-0.07587124,0.2643152,-0.108978145,0.00013250437,0.024822973,-0.086548515,-0.022915648,-0.10643686,0.11892289,0.21083917,-0.03260787,-0.07623454,0.058149926,0.039431956,0.036429644,-0.31878462,-0.083980575,0.004588163,-0.055228043,0.008671445,-0.14342035,0.30167764,0.103027925,0.082359426,0.0037136807,-0.21304289,-0.09734101,0.0026644764,0.044663582,0.10000148,-0.018692387,-0.056107186,0.012470968,0.12071485,-0.011397025,0.06689071,-0.037952244,0.048427947,0.07072858,0.038536485,-0.20253523,-0.03298256,0.12377872,0.13109969,0.0075527104,-0.004704921,-0.036495887,0.08536775,0.22710411,-0.17909276,0.031364635,-0.145922,0.08329855,0.119912356,0.13724035,0.051655386,0.031027785,0.08488491,-0.055078823,0.051927026,0.13693535,-0.11831166,-0.17102727,0.030882867,0.08954056,0.107572585,-0.23897023,0.01239268,0.28908634,-0.026769144,0.1101526,0.0029179682,-0.11719577,0.061095834,0.06726684,-0.22864825,0.11500086,-0.21256267,0.052822955,0.0811641,0.21863434,0.028751811,0.0009563271,-0.03299703,-0.016249804,-0.048276503,-0.041210447,-0.052935917,-0.02123316,0.10529142,-0.06196993,-0.0017259534,0.08147253,0.05157283,-0.09538032,-0.18367243,-0.014761473,0.04674799,0.08722871,0.08570125,0.11692844,-0.045184895,-0.03944044,0.12833276,0.05127799,-0.00507442,0.07829601,-0.19663973,-0.04465953,-0.12558058,-0.0148900375,-0.1474387,0.15342139,0.011376358,0.003033471,-0.048058815,-0.077400975,-0.20719199,0.21462399,0.024465168,-0.03791406,-0.09044758,0.17075098,-0.098415785,-0.008379399,0.055532143,0.10648629,0.0049864776,-0.15124634,0.08039114,0.023110224,0.033011,0.030545529,0.14342926,-0.0329706,-0.06771405,0.06006889,0.14741316,0.07997323,0.121710196,-0.032059126,-0.03559787,0.014056141,-0.11270586,0.041421924,0.08986057,0.039675746,0.042672556,0.059506357,-0.12672317,-0.160094,0.029638259,0.037481762,0.02206345,-0.038913596,-0.047994092,0.1187182,-0.030875318,-0.0006748275,0.056928944,-0.12223778,0.035074268,0.024326574,-0.025572468,-0.08321606,0.098951355,-0.2798232,0.17919372,-0.12832539,-0.011825367,-0.106339276,-0.24469012,0.08652752,0.15821515,-0.007839416,-0.063378036,-0.067065544,-0.20700468,-0.059842095,0.20252438,0.0800259,0.0020910238,0.1885903,0.086668774,-0.06909844,-0.00961495,0.056303017,-0.22884552,-0.015011119,-0.061032284,0.061326317,0.00073181506,0.11797889,-0.00963769,-0.10926677,-0.0026891557,0.025295092,-0.0018775285,0.07918144
away,0.072151534,-0.0561397,-0.034297835,-0.116155796,0.0081246365,-0.1205911,-0.23741989,-0.07136559,-0.20694028,-0.14587815,0.17130339,-0.21280652,-0.13640808,0.0031001116,-0.006687913,-0.12344856,0.09129998,0.040232185,-0.08085093,-0.14968759,-0.011386912,-0.04295388,-0.0066589345,0.10429158,-0.088881545,0.036244407,-0.043696254,0.039873574,0.012268798,0.10783218,0.07434051,-0.113025695,-0.03880118,-0.06300701,0.047239713,-0.082550295,0.100398235,-0.029348651,-0.122761905,-0.14942953,-0.09846962,0.015649157,0.020271365,-0.009846861,-0.18589881,-0.027245238,0.23490994,-0.122159146,0.23310056,-0.08988762,-0.02138188,0.009152524,-0.07850024,-0.022299564,-0.11043761,0.103888676,0.21306835,-0.04742458,-0.07994912,0.07424344,0.02378384,0.029077116,-0.30959222,-0.1004237,-0.017296256,-0.07165244,0.029333197,-0.11139397,0.27627882,0.11129098,0.0985357,0.029500091,-0.21713132,-0.09296162,-0.02204958,0.05915272,0.11049932,0.0034661624,-0.048125494,0.0202217,0.1315324,0.027817959,0.068576254,-0.047842164,0.084871635,0.085934,0.024337372,-0.19301966,-0.02183221,0.114094414,0.12606521,-0.04623777,-0.0053732623,-0.06375773,0.14044449,0.23606399,-0.21315952,0.052004114,-0.14669962,0.08985603,0.09804526,0.165362,0.0743129,0.034986027,0.074543305,-0.04637154,0.09842194,0.13875943,-0.12793818,-0.18828641,0.008284705,0.09849104,0.06831316,-0.2308915,-0.0044557047,0.27649164,-0.010731962,0.114761285,-0.010151478,-0.0909812,0.021824572,0.09136947,-0.23500265,0.10160744,-0.18980002,0.07469849,0.09437616,0.22151582,0.04138003,0.019234281,-0.033898745,-0.016168756,-0.0365846,-0.024530167,-0.058526803,0.013945225,0.07035362,-0.0634372,0.022559337,0.042078916,0.036951922,-0.090169914,-0.16755931,-0.033645116,0.057638664,0.09631092,0.036726177,0.10981357,-0.0011601433,-0.066270955,0.11590144,0.04593721,-0.0125318,0.09061325,-0.20723392,-0.022697728,-0.120664045,0.023067664,-0.13715678,0.14698699,-0.0010784167,0.027895425,-0.00043693025,-0.08996973,-0.16980422,0.19648087,0.030858764,-0.08100354,-0.09116036,0.17068511,-0.090123124,-0.01814979,0.06022386,0.109030664,-0.0025550586,-0.13423808,0.051831737,0.026555838,0.03867128,0.061524436,0.13812615,-0.047004916,-0.07215994,0.067479365,0.10818343,0.05633022,0.13456696,-0.0659044,-0.037571322,0.019972213,-0.124980345,0.016424416,0.08408479,0.0460212,0.004302199,0.052105278,-0.10077295,-0.1549731,0.042678617,0.04125751,0.011583992,-0.027544873,-0.05439042,0.12157184,-0.038436774,-0.0049096453,0.057269752,-0.14098921,0.012539268,0.0052706124,-0.018785892,-0.072416306,0.095935054,-0.2852953,0.14979392,-0.1196088,-0.02759863,-0.09777115,-0.22517984,0.05290292,0.16947182,-0.0077095972,-0.06700462,-0.065591544,-0.19453342,-0.07262259,0.18725367,0.10617328,-0.017427118,0.2252632,0.07394739,-0.05955299,0.010750433,0.06282223,-0.21749285,0.0019697237,-0.08639688,0.06907827,-0.020373909,0.09961012,-0.017736299,-0.14128053,-0.012594719,0.0039761546,0.03472758,0.09809674
ayy,0.123922996,-0.10108519,-0.0286099,-0.13041076,0.0040517584,-0.09933416,-0.25884458,-0.09566332,-0.2634809,-0.22896568,0.21087824,-0.20550565,-0.13401498,-0.021534055,0.0263369,-0.12590702,0.062598124,0.080360256,-0.12446327,-0.22063008,-0.026974538,-0.04969237,0.014772137,0.13172957,-0.11525043,0.060476497,-0.07175317,0.09738944,-0.018951781,0.16303694,0.11571056,-0.111286804,-0.09955175,-0.08495906,0.04603112,-0.15199591,0.16671996,-0.010758297,-0.14250055,-0.19670029,-0.16664888,0.02034401,-0.03023877,0.012850001,-0.23045471,-0.015299886,0.22911939,-0.1257022,0.29496923,-0.11225718,0.018781448,0.008592686,-0.04538686,-0.024882201,-0.12557323,0.09189236,0.27157807,-0.04620193,-0.13360435,0.1250543,-0.008609044,0.01959176,-0.4103125,-0.13279855,-0.045105975,-0.06366541,0.027573552,-0.1428381,0.3474577,0.12378838,0.1513975,-0.025120765,-0.23972069,-0.15294021,-0.036000904,0.057587035,0.08307662,-0.017715234,-0.0020569533,-0.007403588,0.11147161,-0.026140884,0.0821986,-0.061449766,0.09310224,0.08073485,0.032120325,-0.2102214,-0.07666058,0.22120021,0.13355903,-0.004532844,-0.015603672,-0.09248165,0.21001828,0.3426133,-0.1905252,0.058816828,-0.18882628,0.111862995,0.12745073,0.2278095,0.057110835,0.08773565,0.06662424,-0.09715768,0.073285185,0.15993038,-0.12506984,-0.2312769,0.028062958,0.078080036,0.09259066,-0.29105785,0.0041318582,0.34748676,-0.023480956,0.0978557,0.009177999,-0.13094202,0.034992702,0.07833143,-0.32718363,0.0734078,-0.23508175,0.078924246,0.15883447,0.32370397,0.07034913,0.017131144,-0.018831726,0.006046486,-0.079609945,-0.024286017,-0.05480204,-0.028290901,0.12066801,-0.116201624,-0.014537176,-0.0038611272,0.004308221,-0.10166382,-0.19767104,-0.05161754,0.114432104,0.08137693,0.03505479,0.1800512,0.010517265,-0.040765315,0.18844628,0.073948346,-0.0331129,0.13528918,-0.24353571,-0.01790524,-0.09718325,-0.023498034,-0.20604803,0.17192082,0.044733386,0.04726642,-0.021016268,-0.14664902,-0.22715217,0.272071,0.058381286,-0.04201765,-0.10087198,0.21540299,-0.17550689,-0.035140425,0.04585937,0.15185943,-0.0016562126,-0.15288231,0.047688387,0.026194714,0.054318905,0.05383713,0.13892052,-0.08249332,-0.13070881,0.14020115,0.17601633,0.0909625,0.16184099,-0.06411466,-0.038050316,0.06665476,-0.15281779,0.011412702,0.07130482,0.026712563,-0.020304767,0.0983503,-0.18660957,-0.2066352,0.026520316,0.0498501,0.02010862,-0.016619302,-0.0701085,0.19527917,-0.09665101,0.01030887,0.04491519,-0.14508334,-0.022117142,0.032240793,-0.017183665,-0.02607263,0.08035587,-0.31459147,0.1868572,-0.13285281,-0.062447615,-0.122110434,-0.33533323,0.073005736,0.19466159,0.0075437934,-0.07883979,-0.054884385,-0.1727463,-0.08055445,0.23315623,0.16251156,-0.03078296,0.2786671,0.119269244,-0.073729046,0.04859147,0.03263727,-0.2691975,-0.016992506,-0.11268749,0.123081535,-0.015469675,0.16053088,-0.026922015,-0.18911096,-0.010529326,0.05064689,0.0043005785,0.07248792
baby,0.047052424,-0.081812814,-0.060309,-0.06502446,0.0024584571,-0.13046084,-0.2404323,-0.068162724,-0.22221532,-0.1602503,0.16911635,-0.17118272,-0.11578406,-0.003886544,-0.009324321,-0.16323014,0.111424826,0.034706723,-0.059137788,-0.14774023,0.028089846,-0.037055675,-0.0009858673,0.12032279,-0.106777735,0.062451467,-0.013885003,0.050413348,0.023671519,0.1280674,0.055872455,-0.11298753,0.0110545,-0.0674819,0.03069486,-0.091376185,0.101443395,-0.024444552,-0.13126133,-0.1331195,-0.09983158,-0.006106326,0.025247911,-0.0026254407,-0.15957944,-0.03531355,0.17213729,-0.13169362,0.1809946,-0.041476645,-0.017844908,-0.00556757,-0.06379292,0.006865852,-0.13121726,0.09502921,0.22672348,-0.06422609,-0.08720609,0.102744125,-0.0025044389,-0.003743195,-0.28669003,-0.1161587,-0.032741547,-0.103182726,0.055403687,-0.04698313,0.27173528,0.084952705,0.11553932,0.040990632,-0.24330653,-0.07763066,-0.031453937,0.05818804,0.12427054,0.0264426,-0.023691507,0.008062408,0.11786899,0.044280916,0.07566128,-0.040872023,0.12231278,0.0960334,0.010954507,-0.16493219,-0.020552168,0.16964461,0.1431251,-0.051043965,-0.048256375,-0.077742994,0.18414614,0.23865746,-0.21784924,0.04213245,-0.15507618,0.06264261,0.06554,0.15954944,0.10263256,0.034121055,0.0831198,-0.04318493,0.11287399,0.14828323,-0.12760627,-0.17377248,0.01396182,0.08226265,0.015977835,-0.20216721,-0.00596722,0.22053243,0.0102360165,0.087598614,-0.030200107,-0.058158025,0.0075520184,0.11629261,-0.1892173,0.06264306,-0.18535724,0.08569022,0.12096916,0.22686723,0.06111301,0.05995674,-0.013724391,-0.010037638,-0.03992133,-0.002249507,-0.040702827,0.015606333,0.03385407,-0.0553332,0.014154588,-0.0052210432,0.052040573,-0.08107267,-0.16814573,-0.0313979,0.07348313,0.13774031,0.008413533,0.11187863,0.018842576,-0.099835634,0.105247304,0.0212336,0.01136792,0.14982083,-0.19635782,-0.0032046237,-0.07062544,0.008924727,-0.12278407,0.14093319,0.02368784,0.055100843,0.01953351,-0.09632169,-0.1595964,0.19380845,0.06232139,-0.10210031,-0.06686229,0.1476754,-0.117503166,-0.006633053,0.051625863,0.10682859,0.0038580415,-0.12061386,0.062475324,0.04771263,0.07879278,0.07314841,0.101335935,-0.059167247,-0.07982138,0.07755332,0.06855072,0.020274432,0.16127054,-0.09646424,-0.018418122,0.035654217,-0.13757338,-0.00494779,0.07438094,0.049232483,-0.0069078715,0.086731166,-0.07896103,-0.16294856,0.04175055,0.033778533,0.009664579,-0.030601814,-0.06664847,0.13598807,-0.046603404,0.016451228,0.057123795,-0.15641625,0.033084143,0.0005363135,-0.028806197,-0.055443052,0.0861682,-0.30564278,0.13416602,-0.12057912,0.006973608,-0.09551915,-0.26030812,0.0475833,0.18173353,0.0032871817,-0.060117073,-0.037466142,-0.16264072,-0.11129534,0.18281741,0.13788655,-0.04030607,0.2328172,0.06623936,-0.040880714,-0.003927348,0.053285424,-0.19861117,-0.0073651406,-0.12703988,0.07835735,-0.027785998,0.05499538,-0.035047717,-0.1517252,-0.027878417,0.025365027,0.04747981,0.113265306
back,0.061538126,-0.03645728,-0.06904134,-0.14890559,0.024407465,-0.13247733,-0.25215298,-0.070480414,-0.22267468,-0.11437015,0.15625069,-0.2225333,-0.111169524,0.009312313,0.0073299482,-0.114351556,0.14139327,0.045161605,-0.033656865,-0.12254779,-0.040784344,-0.045701656,0.025740992,0.12328041,-0.07463435,0.05794283,-0.047292486,0.010177296,0.060577463,0.08602193,0.10612031,-0.09514511,0.013381081,-0.09584937,0.047338713,-0.07091405,0.09646995,-0.027980948,-0.12259483,-0.14709985,-0.078383185,0.037513793,0.033860162,-0.0051310174,-0.15892641,-0.029166859,0.2645928,-0.15488176,0.25410125,-0.13484477,-0.01889443,0.051004823,-0.10159182,-0.041745104,-0.10586087,0.11475235,0.19998597,-0.04394255,-0.06478645,0.07673124,0.015082338,0.02324165,-0.2815145,-0.12563783,-0.060146924,-0.06738472,0.04832469,-0.116596915,0.24331091,0.11028759,0.13013409,0.02515114,-0.19967091,-0.0769985,-0.033685133,0.073593125,0.12703572,-0.0037447242,-0.07692613,0.027104206,0.17134805,0.06568971,0.045993116,-0.06778586,0.08742569,0.090634786,-0.003620378,-0.20096545,-0.027221898,0.104453735,0.12617059,-0.03655671,-0.022383695,-0.044282418,0.109202296,0.18655017,-0.20227242,0.0965826,-0.09677701,0.073166475,0.073354036,0.15239382,0.070267215,0.011092709,0.123816065,-0.019538846,0.10623807,0.1844167,-0.1198376,-0.16632906,0.016047908,0.08959946,0.07484854,-0.28134784,-0.033947833,0.2728515,0.0044329693,0.08902396,-0.024385212,-0.0813828,-0.023590108,0.12883131,-0.23143445,0.13037552,-0.18189186,0.09203316,0.044317476,0.20935227,0.05520942,0.01549003,-0.0604328,-0.018023781,-0.049269203,-0.022151023,-0.044984583,0.03489425,0.019432196,-0.06563983,0.007314446,0.025044842,0.044724774,-0.05435377,-0.15363717,-0.040344898,0.04054949,0.09524058,0.0064395345,0.1412493,-0.01312784,-0.026456943,0.11390785,0.028254874,-0.01613078,0.057611864,-0.1552253,0.02688086,-0.15284269,0.03863896,-0.1340663,0.16774876,-0.04947693,0.007981318,0.039568216,-0.060535453,-0.16684462,0.17997144,0.05869725,-0.08357895,-0.096845366,0.14642541,-0.115964904,-0.0003378371,0.032441463,0.09425239,0.031395856,-0.17185423,0.07166784,0.030516353,0.013656504,0.05673479,0.10373592,-0.053792875,-0.04502321,0.10030029,0.059533253,0.014406564,0.14563486,-0.042236544,-0.030515943,0.018618552,-0.13725218,0.0061756577,0.033117905,0.07596503,0.01513289,0.034156546,-0.11271643,-0.12101836,0.094335414,-0.012063822,-0.016929502,-0.052851677,-0.07821741,0.100991756,-0.04429609,-0.0137831075,0.05210489,-0.14799553,0.019824576,0.014215417,-0.03256638,-0.08961706,0.10221857,-0.31219894,0.17149578,-0.11265317,-0.053445242,-0.10824734,-0.18312946,0.041971914,0.15085259,0.014702382,-0.07091313,-0.05798927,-0.22677657,-0.099996276,0.17852709,0.11269083,-0.018440852,0.27940702,0.058100116,-0.010096122,0.013637896,0.022732252,-0.20514844,0.025236107,-0.11610798,0.021165673,-0.022525065,0.08004443,-0.020100249,-0.1302245,-0.018978793,-0.010458976,0.024303839,0.1505825
bad,0.07358267,-0.083412215,-0.04117846,-0.079974,0.008633732,-0.12244935,-0.2349254,-0.07143155,-0.20766088,-0.15210772,0.1849504,-0.1653945,-0.14129773,0.0017537784,-0.0047804355,-0.13772936,0.0916157,0.040815085,-0.05900664,-0.1428256,-0.0016740557,-0.042560086,-0.01649759,0.120073505,-0.0933091,0.058037437,-0.03282442,0.06465244,0.020225128,0.13519189,0.06441593,-0.11085245,-0.0013145155,-0.06201292,0.032954257,-0.084972404,0.091607116,-0.020327069,-0.10847202,-0.12541346,-0.092772216,-0.005575387,0.0016728182,0.007861149,-0.17148758,-0.021765007,0.18342936,-0.10461443,0.16480365,-0.040504165,-0.028714927,-0.010724598,-0.056421887,-0.011514385,-0.12132569,0.092317946,0.22407518,-0.06593952,-0.08443297,0.10027969,0.0074357856,0.039555687,-0.27876556,-0.111392014,-0.013784542,-0.09405063,0.05132095,-0.07474136,0.26459226,0.09825901,0.11480255,0.024580833,-0.22949742,-0.084611565,-0.021482745,0.068829045,0.10993861,0.012950345,-0.036594037,0.011223202,0.106206074,0.028354695,0.086056456,-0.045437835,0.10221628,0.08360316,0.014715718,-0.17900482,-0.010170027,0.16125117,0.13777153,-0.04778051,-0.035348095,-0.067850105,0.16771144,0.2342447,-0.20452441,0.03671095,-0.16202913,0.05859984,0.06932004,0.15811117,0.07945944,0.025860138,0.06399968,-0.03828848,0.110238984,0.13767269,-0.115853764,-0.17768763,0.022951445,0.089769214,0.020581385,-0.19838236,-0.008791193,0.22384126,0.010543332,0.1024773,-0.012659281,-0.0676091,0.012369644,0.09038592,-0.2088387,0.06935093,-0.17100678,0.088660486,0.10923844,0.21495943,0.05438018,0.04616114,-0.02687121,-0.00527309,-0.031291183,-0.0069275834,-0.042930864,0.01755573,0.044311073,-0.05689669,0.018001711,0.0042211367,0.033979546,-0.08672636,-0.16303954,-0.03319754,0.05459664,0.12135815,0.0108010275,0.121573605,0.0052325036,-0.08232072,0.09156258,0.031583283,-0.0011387211,0.13563353,-0.20415014,-0.009743179,-0.07195806,0.0055098454,-0.12314043,0.13502695,0.008568183,0.05006918,0.020441866,-0.091819875,-0.16756907,0.20027588,0.059201483,-0.10068062,-0.071187,0.17041202,-0.11223237,-0.016479764,0.047305815,0.10623064,0.0035825334,-0.10036742,0.048920576,0.03880006,0.0689224,0.07969613,0.12213287,-0.06420001,-0.08475354,0.083480604,0.09379337,0.028938258,0.1549106,-0.08056359,-0.029092643,0.044485047,-0.12546645,0.0035182738,0.07997699,0.038648143,-0.0122001255,0.085824564,-0.10204127,-0.15684411,0.030098224,0.04308802,0.004191033,-0.037954625,-0.051337633,0.13748145,-0.053337343,-0.0050152405,0.05255352,-0.1433327,0.016281126,0.008890299,-0.024288457,-0.054577745,0.085920356,-0.2784183,0.14172441,-0.12702782,-0.0139898015,-0.08822857,-0.2499433,0.043366406,0.18629512,-0.021420112,-0.063605316,-0.035146106,-0.16750368,-0.101531215,0.1836953,0.12671769,-0.02369245,0.22251345,0.064223915,-0.044253506,0.016800418,0.0478493,-0.1977134,0.013817678,-0.10045569,0.07404762,-0.039381154,0.06776455,-0.0068345796,-0.1541902,-0.020687427,0.013563228,0.050532598,0.10520376
be,0.09270853,-0.15599202,-0.058792893,-0.035291225,-0.013833036,-0.074698314,-0.2749398,-0.014026687,-0.22087462,-0.16350198,0.22382313,-0.1721055,-0.16811168,0.03618522,-0.04175063,-0.13158163,0.09388454,0.025407206,-0.05940944,-0.16543384,0.006892539,-0.07446107,-0.03975829,0.15473548,-0.11775351,0.048924312,-0.039716527,0.07240177,-0.007251603,0.14031407,0.106149666,-0.10091347,-0.03800522,-0.08851105,0.07241305,-0.11927943,0.08799831,0.008954439,-0.1234695,-0.11134933,-0.13890503,-0.014993103,0.007823924,0.03885536,-0.18358561,-0.03974117,0.20736523,-0.11838863,0.16513318,-0.042577334,-0.060045794,-0.015749708,-0.044241004,0.011706311,-0.08691171,0.08892171,0.24845049,-0.08054517,-0.11895995,0.08307844,-0.016938498,0.072976656,-0.27076206,-0.05728306,-0.03110514,-0.08559003,0.076759815,-0.057120234,0.2451617,0.09587167,0.08424999,0.020647505,-0.18919696,-0.06520861,-0.046928905,0.06275475,0.1218206,0.02248773,-0.032325074,0.029999409,0.119575076,0.027151365,0.09218133,-0.09425406,0.08455722,0.109082304,0.050253484,-0.20339192,-0.017174931,0.15337247,0.13012014,-0.020203779,-0.017044524,-0.098055504,0.19418105,0.27817228,-0.18678364,0.024942897,-0.17939776,0.08317378,0.07286615,0.22147298,0.08948534,-0.0023810475,0.07219467,-0.004452849,0.11423314,0.11493686,-0.11434283,-0.17918336,0.030659389,0.11724829,0.026834743,-0.1966821,-0.01726012,0.2788116,-0.010123538,0.1335468,-0.012602548,-0.05653282,0.006237751,0.032433297,-0.23015106,0.055208195,-0.15906258,0.040865205,0.123853825,0.26349372,0.039739393,0.042394064,-0.027482364,-0.034849085,-0.00413056,-0.019640248,-0.025445271,0.01739641,0.07605571,-0.068598665,0.060554463,0.0075045787,-0.0007880828,-0.07438594,-0.18778405,-0.03050282,0.019803077,0.07266541,-0.020371187,0.114796005,-0.005605987,-0.08041864,0.115515985,0.051031146,-0.02063467,0.14166547,-0.20349745,-0.0057412093,-0.066869505,0.0023385296,-0.118609525,0.16104089,0.029376363,0.07424047,0.024691856,-0.10306826,-0.15711959,0.18593055,0.015819492,-0.08332324,-0.07955225,0.1964035,-0.09536701,-0.027181584,0.054679696,0.123965696,-0.013353573,-0.077793576,0.043014076,0.06699244,0.09191692,0.09540281,0.14495522,-0.04674697,-0.10808713,0.09158914,0.10217468,0.04005498,0.15913793,-0.058347672,-0.007108047,-0.0009562538,-0.10969625,0.02317286,0.08629566,-0.0019528989,-0.03864253,0.058942482,-0.14857925,-0.16639562,0.028768746,0.022088824,-0.001255967,-0.041450493,0.0053609824,0.15922208,-0.089773715,-0.03461232,0.055616353,-0.1360554,-0.031028088,-0.015485686,-0.018237809,-0.033232987,0.081850335,-0.2505101,0.123059645,-0.12776053,-0.030632267,-0.06704128,-0.26462382,0.037867725,0.21937558,-0.049323592,-0.13107005,-0.027490212,-0.13267903,-0.068547264,0.21539117,0.112663314,-0.022956997,0.2288389,0.045004897,-0.054511845,0.020896882,0.039186567,-0.19937989,0.040883396,-0.101977415,0.10483486,-0.0858332,0.08101426,-0.011275685,-0.19288833,-0.00117917,0.045743477,0.06286747,0.043861486
been,0.072704,-0.016883265,-0.037451472,-0.120418295,0.015376644,-0.1412791,-0.1873305,-0.07338348,-0.20967874,-0.16830945,0.136752,-0.2106036,-0.12822638,0.0040904144,-0.043468196,-0.1388574,0.09388833,0.033388775,-0.103855476,-0.14011258,-0.019054156,0.021176212,-0.0083634695,0.086185046,-0.083660655,0.029472545,-0.02763684,0.05140647,-0.0100764595,0.09181944,0.040703945,-0.11754936,-0.020042203,-0.0625349,0.041440465,-0.10098007,0.0996149,-0.029923867,-0.099662356,-0.16569848,-0.120256074,0.027101416,0.019669032,-0.029322041,-0.21915463,-0.024771955,0.24349293,-0.07439922,0.2642994,-0.09613648,0.005881991,-0.0056800283,-0.07399562,-0.020246802,-0.113146596,0.107877836,0.20955959,-0.021536425,-0.08830364,0.07437513,0.037149172,0.011211614,-0.32221413,-0.09527667,-0.006853399,-0.050225526,0.013626413,-0.12186433,0.29524893,0.10441212,0.11935988,0.0312583,-0.2323394,-0.09731115,-0.00060135237,0.01840194,0.079727285,-0.020388937,-0.046353087,0.012138859,0.06653684,0.0116064465,0.07341692,-0.038116638,0.061842646,0.09033295,0.043819495,-0.20010704,-0.037519597,0.15033185,0.14331895,-0.015492011,-0.03158792,-0.037207402,0.13604625,0.25632748,-0.18074828,0.030841522,-0.15214878,0.062366806,0.09537789,0.15157352,0.048030432,0.036387112,0.1011861,-0.078493774,0.05944498,0.14299297,-0.12772043,-0.1790601,0.011212055,0.08904071,0.091502555,-0.24547961,0.008205693,0.29238546,-0.033248503,0.09464814,-0.011050402,-0.10232861,0.06953183,0.076429285,-0.22914113,0.111591324,-0.23594385,0.073357664,0.10533073,0.25769874,0.0133465445,0.042739563,-0.005324314,0.00051487715,-0.044937372,-0.035552323,-0.08135694,-0.011540944,0.082938254,-0.041944623,0.013042884,0.080402866,0.059056614,-0.08726752,-0.1872852,-0.024472892,0.05162139,0.11601506,0.104140624,0.09468467,-0.03256056,-0.07250527,0.11849975,0.044532616,-0.017552577,0.12241354,-0.21675168,-0.017185673,-0.12134562,0.02149785,-0.10058032,0.12202002,-0.004103056,0.02886187,-0.04425687,-0.07172839,-0.22312683,0.24138032,0.014639405,-0.05003266,-0.08655409,0.15477383,-0.11368478,-0.0006460994,0.06713343,0.12754242,0.0037468087,-0.13079518,0.07077084,0.01392614,0.06345463,0.055347204,0.119969815,-0.02999508,-0.083915144,0.060984425,0.13570493,0.06477658,0.16259225,-0.049979657,-0.057628125,0.033533722,-0.11844072,0.034458797,0.0921259,0.036301438,0.029918164,0.07073913,-0.095226556,-0.14322756,0.011868749,0.059886374,0.010739626,-0.060582772,-0.07049945,0.12926261,-0.009357583,0.020122813,0.06313304,-0.16345716,-0.008580215,0.030173337,-0.04729452,-0.06391191,0.11433202,-0.2750862,0.170007,-0.12865828,0.0056883288,-0.089170255,-0.2479421,0.10190224,0.14542477,-0.0038022897,-0.03127909,-0.10469654,-0.19851393,-0.058517672,0.19773638,0.10271914,0.012904265,0.18861382,0.089637496,-0.052631043,-0.0065040225,0.031388737,-0.24415164,-0.0036395784,-0.0859954,0.07290477,0.011730163,0.10322125,-0.020150306,-0.14892158,-0.00017226777,0.020029048,0.019728957,0.11153233
before,0.08240402,-0.07359731,-0.04789171,-0.09361989,0.013128224,-0.124313004,-0.24748102,-0.06795059,-0.22269975,-0.16091013,0.18607242,-0.19915147,-0.15500265,0.013471141,-0.028746838,-0.12746148,0.095699966,0.040523898,-0.07813703,-0.14816917,-0.02295506,-0.032736752,-0.01676271,0.11712509,-0.089850284,0.041200772,-0.03891846,0.052054077,0.009695497,0.12999575,0.08506657,-0.11078081,-0.029248703,-0.073237844,0.0440121,-0.098775625,0.100011714,-0.023567164,-0.11041375,-0.1496384,-0.11695335,0.012655279,0.008228422,-0.004226629,-0.20876822,-0.03333945,0.23663056,-0.108044855,0.22426993,-0.08242686,-0.018518796,-0.005141811,-0.081541196,-0.009664187,-0.11521814,0.10869527,0.23558064,-0.058180444,-0.08996357,0.084834225,0.017085796,0.042955067,-0.30906814,-0.093773894,-0.019395584,-0.0693612,0.045458335,-0.102323,0.28506976,0.114855506,0.10742099,0.025662014,-0.2245536,-0.09673991,-0.022106262,0.0593313,0.11790533,0.006083344,-0.049221147,0.024245564,0.11340451,0.016275436,0.08383871,-0.06690725,0.08374083,0.08346556,0.035115764,-0.20443574,-0.026713511,0.14845376,0.1337739,-0.039599266,-0.02307703,-0.061005417,0.1611748,0.26287976,-0.19448751,0.046807837,-0.1653115,0.080528565,0.08876528,0.1758523,0.06989119,0.020372543,0.07996816,-0.04138982,0.09447668,0.13961165,-0.1318956,-0.18640156,0.020152418,0.10390675,0.0682678,-0.22918916,-0.01518346,0.2825837,-0.0057145907,0.11628584,-0.005214324,-0.08948452,0.030981848,0.07839007,-0.24378714,0.09887579,-0.19987042,0.075081095,0.11039537,0.24909218,0.042707503,0.032587375,-0.026867386,-0.018169263,-0.029153435,-0.020466447,-0.059038695,0.0061051585,0.072635025,-0.06354386,0.019620761,0.040203463,0.029202351,-0.08776502,-0.18778482,-0.03816829,0.04570675,0.106960185,0.03214444,0.1199368,-0.01696183,-0.06636336,0.11912271,0.048442874,-0.0022376638,0.11685864,-0.21337022,-0.013122193,-0.10662398,0.0135249,-0.12826054,0.14552987,0.003773762,0.037368488,-0.0016845531,-0.08536868,-0.1864617,0.21543922,0.032989405,-0.06730285,-0.08607247,0.18616709,-0.10739958,-0.013546934,0.059782255,0.1210873,0.014467395,-0.11937027,0.057629175,0.03284674,0.067205496,0.07038685,0.1332253,-0.048059396,-0.08653379,0.07774142,0.11666102,0.045486297,0.16286774,-0.05516257,-0.029968897,0.028533058,-0.12800935,0.017388554,0.08734188,0.03517525,-0.0030953018,0.07214345,-0.12392294,-0.15858085,0.037631344,0.041437473,0.0071878093,-0.042245697,-0.04221146,0.13322715,-0.049635552,-0.008859285,0.05474589,-0.14290787,0.001519422,0.008804136,-0.021518575,-0.06505207,0.107265554,-0.2909493,0.16172802,-0.13394958,-0.018825183,-0.090148844,-0.25075713,0.06341454,0.194088,-0.015352627,-0.079711996,-0.06378047,-0.1888997,-0.08064189,0.20759301,0.121917985,-0.019246547,0.22989297,0.070012644,-0.054013595,0.012589366,0.049668305,-0.22480042,0.010493531,-0.094312,0.075875536,-0.033797387,0.09571119,-0.015186995,-0.16100428,-0.007055427,0.015728233,0.04741118,0.094197065
believe,0.06299867,-0.0699306,-0.034010913,-0.07139857,0.0056470186,-0.08847148,-0.1996468,-0.049501408,-0.18623893,-0.1389375,0.15332112,-0.15329349,-0.12776525,0.008547251,-0.011752598,-0.11168739,0.07005369,0.036317866,-0.06490367,-0.13208286,-0.008115854,-0.04107804,-0.017547958,0.098539025,-0.073707394,0.036628965,-0.024946518,0.050469365,0.008718319,0.10599102,0.06684969,-0.09091653,-0.027471593,-0.05141174,0.030303901,-0.086146206,0.079840384,-0.016767025,-0.089094,-0.112155885,-0.097704224,0.0068084053,0.0025061949,0.006528423,-0.1613114,-0.023768473,0.18371913,-0.09242715,0.17007141,-0.057257142,-0.019807827,-0.00027573417,-0.055364344,-0.010678374,-0.09646937,0.0879183,0.19250838,-0.052233372,-0.077717,0.06812888,0.007347843,0.036554784,-0.2461055,-0.07657761,-0.009614065,-0.06829808,0.032211352,-0.08066482,0.23513399,0.080837816,0.083313145,0.01674963,-0.18237494,-0.07652729,-0.020110216,0.048373193,0.09998945,0.005280251,-0.031491343,0.020396307,0.09151433,0.016548576,0.072621755,-0.0523323,0.07190398,0.073310815,0.020143805,-0.16604063,-0.015162306,0.11977781,0.10714131,-0.032042637,-0.014595667,-0.05483988,0.13306497,0.21096049,-0.16824092,0.03341601,-0.1347234,0.066445045,0.06892375,0.14755577,0.057032496,0.022262305,0.053833112,-0.03602609,0.082977325,0.10782625,-0.10914462,-0.15270346,0.0146174515,0.08591066,0.043249737,-0.18285704,-0.0075141536,0.22946127,-0.0054969713,0.091433264,-0.011081053,-0.06911724,0.019642483,0.07051072,-0.19421144,0.070689976,-0.15360303,0.057526626,0.08947668,0.19906154,0.03704867,0.022171786,-0.024806717,-0.013599283,-0.0226801,-0.016489692,-0.035802715,0.002388151,0.06279126,-0.046224087,0.022706436,0.023511462,0.021673134,-0.07493766,-0.1525196,-0.026382973,0.03706929,0.086454935,0.019606255,0.10202717,-0.005318334,-0.054155454,0.09281332,0.033551913,-0.0025140974,0.10914321,-0.1667425,-0.021329453,-0.0791042,0.006567432,-0.11698624,0.124036364,0.0126030715,0.0412645,0.004366611,-0.07673034,-0.15114011,0.16584349,0.029950272,-0.06364749,-0.06767587,0.15111752,-0.08324986,-0.010198113,0.05426866,0.0953317,0.0002941238,-0.09438439,0.0426269,0.036721673,0.061240613,0.06398004,0.10889632,-0.050263997,-0.07019769,0.06662741,0.08554864,0.039579436,0.12906209,-0.056093734,-0.02461534,0.022279333,-0.10637938,0.008726494,0.07259039,0.02821619,0.0015098847,0.056677166,-0.09372394,-0.13291343,0.0344561,0.031007227,0.0060362183,-0.02632543,-0.02810277,0.111038126,-0.04531614,-0.010674029,0.053492703,-0.1177148,0.010209581,0.00648917,-0.013789085,-0.04589893,0.07657936,-0.22918259,0.12038224,-0.11244752,-0.018070878,-0.077459164,-0.21739763,0.041221384,0.15540648,-0.01894516,-0.06540916,-0.042517293,-0.14126307,-0.070848145,0.16341425,0.101288736,-0.013246182,0.18456036,0.056735456,-0.04956938,0.016365906,0.0506557,-0.17918003,0.006613476,-0.08186063,0.06754407,-0.03389839,0.075923264,-0.0034284818,-0.13481346,-0.009281478,0.014137424,0.039035954,0.07203068
best,0.06805721,-0.05959577,-0.028841347,-0.08704739,0.009937094,-0.10044562,-0.20350412,-0.0557291,-0.19577064,-0.1378205,0.1541396,-0.17726794,-0.13404742,0.012090284,-0.016536195,-0.10083408,0.07489739,0.03365354,-0.07795086,-0.13657066,-0.017030705,-0.028622642,-0.023850717,0.090831764,-0.07362498,0.031158864,-0.032806676,0.04865858,-0.0022516805,0.105578065,0.06833866,-0.10562656,-0.030483974,-0.055285264,0.038032457,-0.08227647,0.0816744,-0.027540086,-0.09403624,-0.12988234,-0.10750117,0.012395232,0.005602079,-0.0066991197,-0.1840504,-0.02516396,0.19641565,-0.08577526,0.19297405,-0.07351689,-0.020726664,-0.0036055166,-0.060506698,-0.007089976,-0.094497144,0.09472248,0.19860302,-0.050347935,-0.08392851,0.06757981,0.017108971,0.034398574,-0.27892828,-0.0805115,-0.0121715795,-0.06566012,0.022868073,-0.097911924,0.25546142,0.09237445,0.08916688,0.020152725,-0.1931221,-0.08769135,-0.009689969,0.05205902,0.098388,-0.0031345207,-0.039428,0.013480052,0.09266921,0.0071226363,0.079270944,-0.052189562,0.06507058,0.07555102,0.034970913,-0.17638184,-0.024884023,0.12418044,0.119381025,-0.02188284,-0.013366174,-0.056307063,0.12532316,0.227073,-0.17289865,0.032067444,-0.14468637,0.0731087,0.087321736,0.15086547,0.060150363,0.02406458,0.06395694,-0.04032596,0.08059975,0.11829872,-0.11172746,-0.16334155,0.02103039,0.08640939,0.061955087,-0.2061349,-0.0023719063,0.25132722,-0.00972014,0.09533692,-0.007412991,-0.08310105,0.0336008,0.06388234,-0.20816272,0.086827144,-0.16989914,0.057969835,0.093409374,0.21548893,0.034370344,0.024768574,-0.028672617,-0.013651141,-0.030143699,-0.02248817,-0.04311762,0.0068936097,0.07531425,-0.05675332,0.012751301,0.043431737,0.028143516,-0.07459734,-0.15518023,-0.024887647,0.04272305,0.09022998,0.036353294,0.10717425,-0.008860759,-0.058046605,0.10044073,0.04567366,-0.0040899725,0.10145846,-0.18924104,-0.031118834,-0.09021434,0.0011878015,-0.12301398,0.120713174,0.011482235,0.03768069,-0.0038073692,-0.08427464,-0.16436516,0.18120733,0.022717476,-0.05224085,-0.07449757,0.15648907,-0.085654564,-0.013326389,0.05511764,0.10639967,-0.0045710634,-0.11065932,0.05109757,0.026844045,0.045820802,0.05685893,0.12217168,-0.04693128,-0.078415,0.06700235,0.105419725,0.04873325,0.13140388,-0.04871817,-0.026231738,0.023237353,-0.10439443,0.012885914,0.07949757,0.028203279,0.0025909892,0.060400527,-0.1037878,-0.15047814,0.028612543,0.04140673,0.008779584,-0.03286066,-0.037738703,0.115108125,-0.04397757,-0.0075714565,0.05111448,-0.122851506,0.013297264,0.014474386,-0.017319791,-0.0485713,0.086841784,-0.2523615,0.14086312,-0.12075458,-0.01302934,-0.08072053,-0.2287628,0.06137202,0.15700942,-0.012324407,-0.07073247,-0.051704492,-0.16790198,-0.072861895,0.18198445,0.09309035,-0.011532216,0.19248788,0.06388975,-0.056243952,0.005904481,0.052302152,-0.20312846,-0.0025016568,-0.07112919,0.06700222,-0.024109436,0.088808075,-0.0064487047,-0.13731799,-0.008129976,0.016817242,0.03339612,0.079603255
better,0.071210995,-0.090492636,-0.029466195,-0.08443632,0.015911771,-0.11820303,-0.2350429,-0.054797284,-0.23179382,-0.1654353,0.1984675,-0.18863386,-0.15491045,0.008355184,-0.01131609,-0.14344084,0.09528033,0.032234415,-0.071897455,-0.15510008,-0.0057038628,-0.049068503,-0.007907951,0.1354071,-0.09061601,0.05281784,-0.030328518,0.057643455,0.0050105634,0.13779044,0.085210174,-0.12619178,-0.033080075,-0.06693295,0.04275407,-0.1101652,0.10675274,-0.031898227,-0.11395011,-0.15006426,-0.10201906,0.0049164654,-0.00066565245,0.004741743,-0.19143307,-0.030143628,0.21299483,-0.10567016,0.19924195,-0.05977981,-0.033202525,-0.0144770555,-0.07062014,-0.020554703,-0.111483715,0.09844046,0.2278356,-0.07402964,-0.104993515,0.10025798,0.008628552,0.04075085,-0.31532717,-0.09694929,-0.012637921,-0.093224354,0.044760987,-0.09390519,0.2809809,0.10700277,0.11034467,0.03115655,-0.23431249,-0.10216763,-0.014914045,0.065041974,0.11199598,0.005416002,-0.037819076,0.03320751,0.11904723,0.016534526,0.08578639,-0.06142418,0.092082694,0.08549133,0.027254002,-0.2002233,-0.03085242,0.16187133,0.14742272,-0.046491474,-0.031224728,-0.07974401,0.177243,0.26943228,-0.21278894,0.044840008,-0.17489158,0.073237956,0.08249907,0.18046474,0.074954934,0.03285812,0.064368576,-0.037989926,0.10956729,0.14008601,-0.11984601,-0.19471833,0.018464988,0.10825884,0.04860667,-0.22454718,0.0020449073,0.2766298,-0.008254955,0.120454185,-0.0037438613,-0.07965393,0.019685328,0.07535016,-0.23249887,0.083952144,-0.19766283,0.08424328,0.113451205,0.25324586,0.04016393,0.045417517,-0.032082375,-0.01417722,-0.02721011,-0.02177163,-0.055028744,0.011021294,0.06031362,-0.058785185,0.026584612,0.029427545,0.025696449,-0.09101292,-0.17782569,-0.04332722,0.051953215,0.105216414,0.015154584,0.12939501,-0.007537848,-0.06711309,0.1158751,0.039403886,-0.010084688,0.12578402,-0.23268534,-0.0039744917,-0.088745855,0.007335639,-0.13619606,0.15006687,0.0018956885,0.045591045,0.01264631,-0.09500278,-0.19532484,0.21179953,0.041386764,-0.07718795,-0.07887438,0.18096177,-0.119517975,-0.021011716,0.060422868,0.11167303,-0.0070298132,-0.115974545,0.05172338,0.03368166,0.07975768,0.07393163,0.14648072,-0.072081566,-0.094006285,0.08639472,0.110996075,0.048801072,0.16441111,-0.07239338,-0.028508728,0.03617083,-0.13601005,0.009876873,0.09075185,0.04107665,0.00042609897,0.07968696,-0.11995985,-0.1628795,0.036704753,0.051459715,4.4783377e-05,-0.044958066,-0.04334058,0.15392132,-0.054353066,-0.013114841,0.062340256,-0.14174461,0.0062367492,0.012554575,-0.027627071,-0.047356986,0.096871994,-0.29448795,0.14402409,-0.13358481,-0.016243946,-0.08922571,-0.27493423,0.04763642,0.18150045,-0.016228426,-0.07574877,-0.07339531,-0.18264243,-0.09020958,0.20683458,0.12865874,-0.024180917,0.22631508,0.074153155,-0.050997622,0.010353705,0.053785738,-0.23081742,0.0049622185,-0.111840054,0.07504187,-0.04722111,0.091440454,0.0027467567,-0.17378677,-0.014183694,0.02322234,0.03860734,0.10020198
bout,0.09300358,-0.12890913,-0.059470136,-0.035220888,-0.0058430517,-0.09948626,-0.24846187,-0.04449019,-0.20312119,-0.14322996,0.20914829,-0.14052555,-0.1514951,0.012025251,-0.01921621,-0.11418216,0.07062824,0.032185137,-0.057158522,-0.14302815,0.007958537,-0.057524342,-0.026256697,0.13029528,-0.100682884,0.05406185,-0.039571807,0.08106072,0.014079951,0.15247001,0.07486725,-0.088598885,-0.014123626,-0.07794148,0.03126342,-0.08974535,0.09502154,-0.0083573125,-0.09702044,-0.08985049,-0.12652224,-0.00015025315,0.0028813086,0.035569355,-0.17274152,-0.037016362,0.16236481,-0.11709301,0.12954865,-0.017357288,-0.052743804,-0.006696058,-0.060219288,0.024454892,-0.0954463,0.09377216,0.23821634,-0.07992264,-0.10335322,0.10405442,-0.017859554,0.065446235,-0.24835727,-0.07910692,-0.020977275,-0.095012195,0.06460179,-0.041697964,0.24653535,0.09062996,0.100260735,0.010284774,-0.19104683,-0.080200806,-0.039242305,0.07010194,0.11452457,0.017518284,-0.016102917,0.008452766,0.108309016,0.018665705,0.10917587,-0.06794474,0.08821087,0.08305005,0.023756621,-0.17164645,-0.006488043,0.17109038,0.1376307,-0.04564118,-0.030476043,-0.07170696,0.18722348,0.24891327,-0.17429924,0.03334509,-0.15872131,0.04936647,0.0657094,0.18634376,0.09781282,0.01777209,0.04011328,-0.019925661,0.10540305,0.11014216,-0.12102052,-0.18084767,0.036426935,0.106047586,0.0068195616,-0.17745389,-0.015240247,0.22657064,0.009843079,0.09754916,-0.016519284,-0.06280273,0.0067969654,0.07006524,-0.19841349,0.04158923,-0.15240154,0.07869818,0.13542731,0.23468971,0.051234983,0.03209464,-0.017861497,-0.011959686,0.002270792,-0.011110628,-0.022939298,0.01843552,0.063461795,-0.053779747,0.04439038,0.0072407257,0.0074808626,-0.07480886,-0.1773624,-0.033833805,0.039823417,0.109235324,-0.0077763796,0.116257265,-0.010583753,-0.08464305,0.10586381,0.03157884,0.007418509,0.15934396,-0.17469205,-0.018599628,-0.060877346,-0.006081404,-0.12570474,0.14907305,0.035271212,0.06446419,0.043104716,-0.09921145,-0.15901773,0.1945575,0.049268536,-0.08968531,-0.06223473,0.182081,-0.09373252,-0.0061062574,0.049301203,0.1190801,0.008645383,-0.06202444,0.028697083,0.053853754,0.10360913,0.08848608,0.114880435,-0.06387073,-0.08902706,0.07557214,0.08051682,0.024972873,0.16229694,-0.07324884,-0.009990611,0.030836266,-0.12016792,0.014591373,0.07547173,0.020807302,-0.027972508,0.079205304,-0.1358511,-0.16171853,0.03618705,0.023134798,0.023757916,-0.04923302,-0.024335891,0.14311306,-0.07616407,-0.013989896,0.04940697,-0.12516685,-0.0131451655,-0.019294886,-0.024126653,-0.043682683,0.090957835,-0.24322161,0.12693393,-0.118263446,-0.02745329,-0.08127107,-0.26116034,0.02548158,0.2123181,-0.04394859,-0.10559411,-0.008290772,-0.1235697,-0.08879317,0.17584515,0.13045208,-0.033990614,0.21519026,0.03407517,-0.044199046,0.03042884,0.039599508,-0.16343339,0.029063307,-0.09897405,0.08537234,-0.05570658,0.047484808,0.007066116,-0.17021464,0.0015379238,0.01755915,0.073984176,0.058509998
boy,0.07469888,-0.08724648,-0.050471216,-0.079126775,0.0019562824,-0.11381933,-0.23886786,-0.05457092,-0.20775458,-0.15286848,0.17585899,-0.1739095,-0.13738951,0.009061503,-0.017970618,-0.13828595,0.09769824,0.037128594,-0.0665849,-0.14276145,-0.0019684336,-0.036832362,-0.015458289,0.12080236,-0.0918109,0.045981314,-0.0245367,0.055652972,0.010870889,0.12629871,0.05891031,-0.1036247,-0.015012623,-0.0704212,0.030430673,-0.08536046,0.090860054,-0.023505725,-0.10791365,-0.12796868,-0.11352918,0.00630623,0.017466642,0.0053540966,-0.17723176,-0.036429215,0.19320086,-0.10795972,0.19585286,-0.05443854,-0.022319369,-0.0037010428,-0.06998893,-0.0006200736,-0.11517505,0.107709706,0.2311668,-0.053251408,-0.093682915,0.092694156,0.003419417,0.032837573,-0.27803278,-0.09110083,-0.025669254,-0.07901172,0.04715549,-0.07356193,0.26735827,0.09332693,0.112966076,0.027224855,-0.22297046,-0.07275002,-0.015915405,0.053658616,0.10857189,0.0045277257,-0.03254392,0.009212243,0.108589,0.029188624,0.08230629,-0.061826933,0.08636478,0.07865291,0.020636553,-0.18334088,-0.013056547,0.15057196,0.13710734,-0.04011694,-0.026974557,-0.06301222,0.16989635,0.23616286,-0.19578055,0.035384968,-0.1461792,0.058526408,0.08294566,0.16457725,0.08049823,0.023005417,0.07544096,-0.0332512,0.09376899,0.12829,-0.1269207,-0.17983624,0.01931952,0.09446101,0.041278988,-0.20464449,-0.005376619,0.24107274,0.0060245907,0.09989217,-0.024305932,-0.07625021,0.0073071197,0.08277728,-0.20341839,0.074041314,-0.19345097,0.07592143,0.1107746,0.23741217,0.04832773,0.034830786,-0.027875518,-0.006113022,-0.021669991,-0.015121002,-0.043418113,0.012049494,0.054282866,-0.056072112,0.030470593,0.021546915,0.034379456,-0.07904525,-0.17916188,-0.031040115,0.04895926,0.11129536,0.032517463,0.11022272,-0.012744191,-0.084511705,0.10849951,0.038863145,-0.0053921123,0.13322882,-0.18471323,-0.020791061,-0.07581811,0.0074217427,-0.12151141,0.1449263,0.020247834,0.049178857,0.011321329,-0.08766564,-0.16799898,0.20690402,0.042055704,-0.08397266,-0.073855944,0.16018158,-0.09707309,-0.009230795,0.054660883,0.114806324,0.012729592,-0.10633943,0.052376874,0.036155146,0.07558476,0.07654972,0.11004325,-0.049328107,-0.08579887,0.06668592,0.09395962,0.040223885,0.15416312,-0.079311766,-0.024905238,0.031597346,-0.12618783,0.025452983,0.075726785,0.023735225,-0.006827117,0.079316296,-0.111267075,-0.15379551,0.03584799,0.03909129,0.0152384695,-0.04516645,-0.049026947,0.1273737,-0.05253951,0.004672961,0.059403885,-0.13589384,0.00645038,-0.00049183733,-0.02497468,-0.057733875,0.09366497,-0.2791997,0.14391471,-0.12488262,-0.015975632,-0.08976236,-0.24518916,0.05746119,0.18523352,-0.01030884,-0.08196,-0.03938421,-0.17250308,-0.08380833,0.1859314,0.116006434,-0.012618687,0.22066005,0.048908364,-0.04848141,0.012543815,0.048870664,-0.19578235,0.0073433574,-0.10041392,0.07474924,-0.035997722,0.06822904,-0.016795658,-0.15291189,-0.005803009,0.023271842,0.0473242,0.09348831
break,0.0877304,-0.120098524,-0.04372399,-0.06039114,0.024793232,-0.10554992,-0.24953815,-0.041501224,-0.21703006,-0.13758151,0.20890437,-0.16929358,-0.15506299,0.02883216,-0.012430291,-0.11569821,0.08442423,0.035984047,-0.042146184,-0.16213544,0.009635987,-0.07607514,-0.029052012,0.13594952,-0.10006503,0.07818486,-0.04586876,0.062350273,-0.0008485526,0.12789127,0.10921789,-0.09367641,-0.01805492,-0.085805714,0.050345305,-0.09703358,0.10976391,-0.0114062475,-0.13654713,-0.13280864,-0.10913715,-0.016290646,-0.0041847737,0.020459004,-0.18136583,-0.026136091,0.20861818,-0.13747576,0.1806344,-0.055092975,-0.060020674,-0.009914333,-0.052425403,0.007096024,-0.093392834,0.076586045,0.23973101,-0.09108852,-0.122078724,0.096861094,-0.024022348,0.057178464,-0.2908224,-0.08273563,-0.022032179,-0.093849584,0.062758535,-0.07036368,0.2567399,0.089077525,0.10221453,0.026738228,-0.20515697,-0.0959995,-0.03183018,0.0789793,0.116661474,0.016097508,-0.027784064,0.031762253,0.12702091,0.032090455,0.091575354,-0.07572092,0.110207304,0.1015277,0.047251504,-0.18639049,-0.01460639,0.14811958,0.14247401,-0.05733837,-0.042315517,-0.10188164,0.19389132,0.2786846,-0.2004378,0.058815353,-0.17843972,0.072114915,0.06844313,0.2169181,0.08375155,0.022966359,0.040099878,-0.020626325,0.13198026,0.13269718,-0.1332857,-0.2019046,0.029614685,0.10911105,0.031726245,-0.20211746,-0.023426073,0.26176405,-0.0049824878,0.12312924,0.0012881793,-0.07109584,0.014628888,0.08776099,-0.24287473,0.08166721,-0.15703201,0.091443844,0.11070776,0.23537476,0.040793493,0.048528776,-0.035179347,-0.037929546,-0.0058140825,0.0021818485,-0.04034788,0.032071125,0.05740708,-0.06893332,0.040351454,0.023043498,0.010484482,-0.08253327,-0.1822423,-0.029164307,0.046006214,0.09836482,-0.023620069,0.12021435,0.02642193,-0.08312762,0.10998586,0.036712237,-0.010513806,0.120208405,-0.21459717,-0.012155604,-0.0704421,0.02812225,-0.12838262,0.1337229,0.0062064794,0.06519762,0.03948647,-0.10191899,-0.15364677,0.18825816,0.040495895,-0.09065446,-0.08865796,0.18442373,-0.103654586,-0.019740842,0.058099475,0.12578498,-0.016279146,-0.079537846,0.01974883,0.05111238,0.07737047,0.09303216,0.14015199,-0.07141058,-0.101095244,0.092470594,0.08071159,0.025138615,0.14670728,-0.067342706,-0.016407369,0.022582134,-0.13271667,-0.0188266,0.0815676,0.03523122,-0.03155193,0.06136398,-0.12143369,-0.17597137,0.039118767,0.054186203,-0.0031136968,-0.040033575,-0.01367048,0.15137945,-0.074946076,-0.037529316,0.043905936,-0.139847,-0.018891461,0.004471772,-0.016506175,-0.03629432,0.0829505,-0.28266752,0.14155906,-0.13961913,-0.025854608,-0.07913182,-0.2764003,0.03541624,0.19718441,-0.046650615,-0.09517222,-0.04262202,-0.1530082,-0.109020814,0.19747186,0.13651952,-0.047458537,0.25314203,0.05625291,-0.050618537,0.016521659,0.052728154,-0.19936682,0.03465368,-0.10526412,0.09224519,-0.059150822,0.0695366,-0.0034060108,-0.19317627,-0.01573919,0.009383943,0.07616312,0.0849133
bring,0.07325861,-0.059368823,-0.042695478,-0.09770916,-0.011603291,-0.092615165,-0.22152345,-0.07036141,-0.2041444,-0.15207054,0.15254581,-0.17038381,-0.11934603,0.0062633385,-0.004417157,-0.1331733,0.08625084,0.047205064,-0.07411737,-0.14604576,-0.0015031837,-0.041881017,-0.0027364895,0.09642615,-0.07353449,0.03277939,-0.030085385,0.06463347,0.021218074,0.11588224,0.047779392,-0.10011682,-0.030572172,-0.056637954,0.032202616,-0.08526844,0.09974857,-0.018455474,-0.11149425,-0.12941532,-0.09664526,0.020563949,0.018580558,-0.011252587,-0.16678889,-0.03392664,0.19588462,-0.11222216,0.20088476,-0.0726881,-0.008167209,0.013359749,-0.063339174,-0.008387335,-0.12464389,0.08844748,0.20356987,-0.03587054,-0.07504894,0.07681634,0.018389838,0.021094846,-0.27895057,-0.0927619,-0.024155043,-0.07455451,0.02619699,-0.090466574,0.27106315,0.09656684,0.1012471,0.024118751,-0.21222015,-0.077377036,-0.013743464,0.038722448,0.09583975,0.007489577,-0.03480105,0.007553292,0.11049435,0.007194166,0.06077657,-0.03565517,0.08663308,0.07003807,0.007852775,-0.17388536,-0.026218431,0.12985176,0.113423906,-0.024797881,-0.019852739,-0.04358131,0.14519879,0.22421682,-0.18324669,0.028491927,-0.14282359,0.06905411,0.096075475,0.1394507,0.06845762,0.031755302,0.07479972,-0.054896183,0.06576542,0.12615997,-0.11296587,-0.173638,0.00603611,0.08127641,0.053426106,-0.20684846,-0.005105743,0.24322325,-0.008081904,0.0819749,-0.02248662,-0.08592736,0.01669498,0.09010252,-0.21228118,0.07457989,-0.18743,0.054549914,0.117943816,0.21741778,0.047391675,0.0145898275,-0.035760045,0.0021077676,-0.038319938,-0.020694606,-0.044600453,0.0013329925,0.07858679,-0.061404824,0.014819112,0.010250661,0.03143533,-0.08922852,-0.15936412,-0.03279736,0.06975936,0.08717665,0.029876027,0.10511377,-0.0073173204,-0.056340124,0.10485537,0.03973156,-0.0023528393,0.11746424,-0.16933145,-0.020604346,-0.09919916,0.0073772697,-0.12795176,0.13005957,0.009113287,0.031028416,-0.0066561406,-0.09161947,-0.16996995,0.1992908,0.03992525,-0.0747271,-0.068461716,0.16016795,-0.10943054,-0.00715381,0.04477247,0.10638658,0.007647832,-0.12836853,0.053872973,0.028549407,0.05054476,0.056779385,0.11045802,-0.056465127,-0.07850259,0.064065546,0.0936212,0.053101845,0.13337892,-0.07056147,-0.018969527,0.027462283,-0.11487668,0.017965728,0.06886944,0.037649605,0.003272783,0.06868497,-0.11013281,-0.15304367,0.03673789,0.044167742,0.011441688,-0.023007814,-0.052148197,0.12050964,-0.037925284,0.0032450948,0.06493525,-0.1297778,0.017556077,-0.0008460179,-0.022414215,-0.063350186,0.08496539,-0.25626656,0.13456838,-0.11574442,-0.017806536,-0.09420101,-0.23878558,0.06210342,0.15648185,-0.0024224014,-0.06508638,-0.052814312,-0.16870707,-0.074682765,0.18069848,0.102555215,-0.013643076,0.2067745,0.06472521,-0.0616068,0.01515394,0.061081402,-0.18933061,-0.016014447,-0.07836159,0.073842,-0.02155619,0.094539076,-0.032836888,-0.1253909,-0.0108600585,0.013360966,0.019968344,0.078601465
but,0.057346832,-0.05494423,-0.037226822,-0.10141366,0.023685187,-0.12835297,-0.23922369,-0.06495232,-0.21341768,-0.15358311,0.16079475,-0.19429612,-0.128754,0.003727249,-0.019278413,-0.1242622,0.10220952,0.0357943,-0.068036795,-0.13687892,-0.013907433,-0.029522385,-0.015058403,0.11955009,-0.08275963,0.03676828,-0.028380528,0.029242177,0.0021751549,0.101566836,0.07006598,-0.09604897,-0.013485601,-0.06644962,0.022644175,-0.08028439,0.08515258,-0.028222501,-0.109632745,-0.14802538,-0.107787944,0.0038185976,0.015238336,-0.010370009,-0.17777458,-0.025682198,0.21824105,-0.11136574,0.21439914,-0.08959302,-0.012792192,-0.006581206,-0.07132122,-0.022394795,-0.11271282,0.116751246,0.2118488,-0.043352872,-0.07515377,0.07418103,0.00045531284,0.030569337,-0.2879515,-0.10036608,-0.029307393,-0.069277465,0.04099265,-0.085104294,0.2742016,0.10471392,0.107433446,0.031567108,-0.21630545,-0.077523746,-0.02161643,0.04726058,0.1104157,0.004283378,-0.054273456,0.022275696,0.104121186,0.027457193,0.076540574,-0.051329948,0.07201186,0.08108023,0.02868694,-0.17810872,-0.013819925,0.12733155,0.13386184,-0.03320308,-0.014493687,-0.059789456,0.1465967,0.2225754,-0.20219685,0.05224905,-0.1359187,0.07421302,0.09497816,0.1451872,0.0647269,0.025537254,0.084115356,-0.042094167,0.09157037,0.13712487,-0.12797755,-0.17052668,0.0052574556,0.09242772,0.058899194,-0.2210873,-0.013811491,0.25440848,-0.011255449,0.10881334,-0.022018397,-0.07618485,0.02368209,0.092153236,-0.21657161,0.10660745,-0.19234556,0.073370144,0.08781835,0.22918025,0.048572898,0.030647762,-0.030601023,-0.013156506,-0.031417698,-0.020404212,-0.05064806,0.02181207,0.047805764,-0.05151468,0.027396826,0.0481618,0.054206908,-0.07238536,-0.170789,-0.028877866,0.041919637,0.09350398,0.04388293,0.09926327,-0.0013180722,-0.073252924,0.10038625,0.036417563,-0.010520781,0.112174906,-0.2014741,-0.018205376,-0.08985858,0.02332743,-0.11535711,0.14863636,-0.004311769,0.037895974,0.0039582,-0.069189884,-0.17044508,0.19571087,0.02961922,-0.07969749,-0.07951859,0.14767687,-0.0953055,-0.017570678,0.06317308,0.114524394,0.009035945,-0.12893365,0.049957998,0.024251752,0.057743285,0.06525812,0.12017185,-0.03261802,-0.080591306,0.07056495,0.09338798,0.038148835,0.15298994,-0.0672205,-0.03978297,0.028999241,-0.123768695,0.016513487,0.079932,0.0405479,-0.0016069365,0.06726578,-0.09599453,-0.1445202,0.0392602,0.039582584,0.014057806,-0.034379248,-0.050804008,0.10797786,-0.033049673,-0.0069253314,0.055634633,-0.14220265,-0.00032070975,0.016489571,-0.020302275,-0.06468423,0.09886931,-0.2913406,0.15731736,-0.11881443,-0.011414356,-0.09048055,-0.2306378,0.06568858,0.17505419,0.0038553814,-0.080274515,-0.055097044,-0.19286925,-0.0779242,0.19137444,0.1081099,-0.002239423,0.21848324,0.062697604,-0.05099928,0.004573292,0.056384947,-0.2110298,0.0042970995,-0.09927455,0.06691705,-0.030178852,0.07872626,-0.008947934,-0.15188776,-0.018973336,0.011719579,0.040590033,0.11524828
by,0.08208499,-0.086289614,-0.032564823,-0.11553364,0.008082703,-0.12102098,-0.20081468,-0.08585674,-0.25604317,-0.14654711,0.18188837,-0.22660094,-0.13698514,-0.015966218,0.034763888,-0.14501984,0.06775786,0.0257708,-0.1017162,-0.17925748,-0.030475121,-0.023248604,-0.016209213,0.089008026,-0.07206739,0.026630037,-0.06678595,0.088355355,-0.012536071,0.12065725,0.089451425,-0.13704278,-0.083848454,-0.06177553,0.051020574,-0.11802054,0.13379729,-0.056646924,-0.09235547,-0.21712771,-0.104741395,0.032259148,0.024504598,-0.0036251305,-0.2083479,-0.016182734,0.24045494,-0.11062489,0.24878016,-0.068655655,-0.05384198,0.019621473,-0.1075412,-0.058381684,-0.14066693,0.088546254,0.20462479,-0.06028524,-0.08093271,0.081809804,0.07200822,0.05619223,-0.38856918,-0.089321785,0.0027417506,-0.09665,-0.007522002,-0.15365519,0.31648478,0.10616948,0.09511097,0.041529275,-0.20980632,-0.16345988,-0.018193873,0.09509872,0.15460634,-0.037537258,-0.006189239,0.046923984,0.14716205,-0.001075022,0.10871999,-0.022329194,0.09730109,0.076545656,0.045569018,-0.2119785,-0.0391713,0.15890136,0.13901298,-0.075856976,-0.02238084,-0.08051243,0.12486786,0.30541447,-0.25338426,0.01252963,-0.17593193,0.06652801,0.07786729,0.21450824,0.082890704,0.08201228,0.059407465,-0.053805314,0.11515573,0.14137708,-0.11034409,-0.18803951,0.04843267,0.070172936,0.07446904,-0.2702881,0.039823443,0.30450204,0.017095992,0.10421567,0.020967238,-0.1196662,0.060965154,0.09027231,-0.25462282,0.113524035,-0.22309187,0.058862146,0.12008531,0.21869558,-0.008306868,0.029357722,-0.028664608,-0.033916984,-0.08757975,-0.037391547,-0.07472373,0.0065984083,0.098196566,-0.079846226,-0.03747637,0.045533963,0.021285268,-0.096667975,-0.17561336,-0.04844018,0.070836104,0.1282491,0.008968913,0.14587618,-0.0009840681,-0.07812036,0.15388687,0.03823784,-0.0064836894,0.14774115,-0.256585,-0.0066323048,-0.12176723,0.0029925853,-0.17161593,0.16921099,0.058431234,0.01639701,-0.030380847,-0.10602154,-0.23470928,0.1844461,0.039327856,-0.06458305,-0.09332124,0.19781521,-0.13093294,-0.028930377,0.07472218,0.1343973,-0.04820283,-0.13823766,0.06929404,0.024411183,0.016093647,0.047030333,0.15198581,-0.067472845,-0.09665529,0.09060321,0.1017528,0.081559,0.13942331,-0.0382986,0.00282829,0.047714807,-0.18307446,-0.026820421,0.098955214,0.08441809,0.02953572,0.091448754,-0.09566008,-0.2189073,0.07889086,0.010796396,0.0039943107,-0.01853887,-0.06571022,0.1779677,-0.048962947,0.0036049455,0.042488188,-0.1310778,0.06925971,-0.007839789,-0.030967355,-0.046825342,0.077373356,-0.30631843,0.14564666,-0.16590446,0.029903295,-0.10033597,-0.3190022,0.048594825,0.15111467,-0.0035498613,-0.07508727,-0.10194213,-0.21631892,-0.06841386,0.22681943,0.11035745,-0.04614391,0.21302612,0.07798446,-0.06260634,0.020649277,0.047173355,-0.24420364,-0.02065182,-0.09680877,0.07046566,-0.0022924526,0.12344275,-0.012734745,-0.15214542,-0.036230538,0.026796661,-0.012163678,0.07417663
ca,0.021112897,-0.051563215,-0.05884034,-0.0953714,0.041781016,-0.14368843,-0.28004655,-0.07153489,-0.18770012,-0.10288006,0.17718676,-0.15283912,-0.09126587,-0.019807562,-0.0002600575,-0.13211739,0.09139919,0.028780635,0.0042259814,-0.13703881,0.029239586,-0.0924031,-0.00020745229,0.13610089,-0.09203411,0.09984648,-0.026513085,-0.005311701,-0.004745097,0.08747971,0.08478738,-0.05774856,0.023702698,-0.080118306,0.012541537,-0.057644986,0.10043616,-0.009436181,-0.15373525,-0.14139374,-0.041550376,-0.04097491,0.01779412,0.020690115,-0.1321017,-0.023574002,0.19884253,-0.18704474,0.14684698,-0.07977357,-0.07028384,0.007152046,-0.046781793,-0.032339502,-0.111570016,0.0807968,0.20895617,-0.073225975,-0.07652364,0.074226215,-0.044637572,0.011483781,-0.22976266,-0.12207726,-0.055781804,-0.09465915,0.060910225,-0.041692793,0.21400723,0.09677194,0.11945641,0.05402253,-0.17858426,-0.044932913,-0.045317747,0.08696457,0.10670049,0.019747056,-0.038533267,0.041670155,0.129707,0.093365036,0.069127075,-0.060314618,0.1250182,0.0997603,0.020108055,-0.14161454,0.016948804,0.099408306,0.13987765,-0.09308832,-0.04933497,-0.105568126,0.18879604,0.20178448,-0.24585904,0.09788889,-0.117645904,0.05520715,0.037190814,0.17517096,0.06874675,0.0472267,0.06413119,-0.006998916,0.1676617,0.16428393,-0.14189452,-0.18726705,-0.0081966445,0.10374022,-0.00014551537,-0.21737799,-0.039841805,0.20796101,-0.0031154477,0.105826646,-0.018572537,-0.043403752,-0.04785201,0.15468204,-0.20963898,0.11277662,-0.16035476,0.12403082,0.0678717,0.16197526,0.053917512,0.069459476,-0.05225285,-0.027900277,0.0022988324,0.019356806,-0.031907413,0.106611736,-0.029244069,-0.049534366,0.041504536,0.0049908115,0.05782545,-0.05952582,-0.1430642,-0.039405566,0.05156534,0.0912796,-0.032105304,0.06084607,0.077684596,-0.12269143,0.07611148,-0.0019603276,-0.015782008,0.094589,-0.18832979,0.017180154,-0.058168575,0.103769615,-0.11073791,0.13792624,-0.026983956,0.06361978,0.0734466,-0.07128039,-0.09358045,0.117370464,0.03821069,-0.16836911,-0.0888296,0.10672138,-0.0817338,-0.03741715,0.046042092,0.099962465,0.0006547695,-0.10740501,0.007608895,0.036844455,0.069299795,0.09706189,0.09061108,-0.040024515,-0.08064628,0.082479164,0.024111519,-0.009149299,0.12842606,-0.07978023,-0.03277591,0.008863425,-0.15331767,-0.04428062,0.05312218,0.09783529,-0.048899584,0.042470444,-0.040333852,-0.12607114,0.086632654,0.031127999,-0.00579641,-0.026102629,-0.043609962,0.09808646,-0.023518369,-0.008014317,0.022203913,-0.15118107,-0.032508247,0.003337122,-0.0036705735,-0.041100953,0.08699401,-0.30479357,0.15891998,-0.11497727,-0.017065484,-0.06368878,-0.2070278,0.027221147,0.17602219,-0.002915077,-0.08081516,-0.032683864,-0.196217,-0.09719524,0.16923213,0.13723508,-0.042731404,0.3007017,0.01834916,-0.03306591,0.026516626,0.07857675,-0.1734449,0.038613252,-0.117373474,0.02405738,-0.04827388,-0.002499238,-0.011159137,-0.16983259,-0.030361326,-0.00812308,0.09820411,0.15020388
call,0.07945304,-0.06997632,-0.033624567,-0.067567594,0.015151337,-0.15424016,-0.2417221,-0.06978386,-0.22552265,-0.17583737,0.17735775,-0.18316041,-0.13494658,-0.011890878,-0.017376514,-0.1579989,0.11280518,0.030820498,-0.06158066,-0.14401816,-0.0095258625,-0.019371718,-0.0031501374,0.12891307,-0.09865496,0.06681514,-0.0011105598,0.034200557,0.038275022,0.14172184,0.05774957,-0.119164236,0.034813393,-0.07382767,0.008388443,-0.099668294,0.092389576,-0.023326037,-0.12385253,-0.12752381,-0.121248096,-0.010760323,0.019417347,0.00087898574,-0.181835,-0.035610378,0.19122258,-0.11238854,0.20603684,-0.055496518,0.0057336306,-0.031688802,-0.05227583,-0.0123893,-0.14285143,0.13947332,0.21558878,-0.07803881,-0.07002806,0.09383487,-0.008401774,0.0011255749,-0.28825986,-0.12902194,-0.0056025125,-0.09588365,0.055369347,-0.042672526,0.28400773,0.10127737,0.13395081,0.025947222,-0.26994267,-0.08459759,-0.01899689,0.02835052,0.12485553,0.020627128,-0.039372455,0.018064504,0.095970415,0.055368785,0.087706126,-0.039946415,0.084965,0.080347724,-0.00014427237,-0.16595651,-0.010986871,0.19513632,0.1727048,-0.047702342,-0.012916571,-0.05081322,0.18635483,0.21663713,-0.21076553,0.045363363,-0.13497512,0.08401538,0.06501206,0.11779325,0.08794078,0.03645109,0.09966667,-0.05711975,0.09529042,0.11852775,-0.12027773,-0.18204457,0.0056617935,0.09051143,0.026489388,-0.20014264,-0.020674065,0.2173754,0.019328112,0.10547675,-0.024889011,-0.053458568,0.015524,0.09595115,-0.18219744,0.061496872,-0.20785636,0.08750987,0.103334226,0.24298383,0.07535956,0.033577226,-0.019016044,0.009716272,-0.030352637,-0.0045736283,-0.03529362,0.009297045,0.02479656,-0.06361399,-0.012510261,0.004686492,0.06941318,-0.07161944,-0.15970434,-0.057355274,0.044299874,0.14763062,0.01483751,0.12130619,-0.015369651,-0.09468476,0.08796397,0.016022602,0.033807203,0.15148613,-0.20490341,-0.016859667,-0.087667786,-0.0307495,-0.13740212,0.16350716,0.0127866985,0.060035273,0.0051960666,-0.081401855,-0.18105738,0.22098465,0.068739824,-0.0841105,-0.055631004,0.15681478,-0.13084349,-0.0032038207,0.053670134,0.08732425,0.033369277,-0.11538415,0.070883825,0.03781678,0.099967234,0.072416455,0.098719,-0.03703837,-0.061503835,0.0718981,0.10074117,0.019190136,0.18931976,-0.11733322,-0.0179933,0.03601322,-0.15112007,0.03305522,0.058364734,0.029891409,-0.004464372,0.096995786,-0.09114478,-0.16080151,0.027369794,0.019850137,0.047618665,-0.039264817,-0.07988087,0.11733297,-0.055663172,0.01640267,0.07002767,-0.12485492,0.026178185,0.0062295967,-0.030374328,-0.06492297,0.067135096,-0.29201192,0.12943362,-0.11668787,0.0013279833,-0.11618731,-0.22659953,0.025529372,0.20558815,0.012324908,-0.046042133,-0.033376813,-0.16767478,-0.10135794,0.17845635,0.15354331,-0.01958915,0.19667538,0.06961471,-0.026054243,0.031102225,0.03902148,-0.22646289,-0.017268725,-0.12838565,0.082135186,-0.032985043,0.05888915,-0.020641673,-0.1560714,-0.036733676,0.02910149,0.044008467,0.111166805
can,0.05633401,-0.06807614,-0.046218216,-0.09166841,0.00764878,-0.11747923,-0.24619243,-0.06920313,-0.21238391,-0.16950573,0.16662835,-0.19069906,-0.13026363,0.00018268361,-0.008322758,-0.15494895,0.09904229,0.028435672,-0.06325871,-0.14317119,-0.0015859895,-0.035522867,-0.0005891134,0.123588614,-0.08135871,0.04404633,-0.0011792441,0.037596986,0.024164164,0.1333516,0.065565564,-0.10802401,-0.010289016,-0.06472536,0.017350301,-0.07807889,0.092459545,-0.017167471,-0.12054369,-0.13195871,-0.09753172,-0.015618089,0.012230573,-0.015925031,-0.16364269,-0.025184896,0.19901854,-0.12104606,0.18912467,-0.07773895,-0.001364097,-0.014804757,-0.07287855,-0.016636595,-0.12758821,0.10573043,0.20806487,-0.05697663,-0.06919889,0.06946998,-0.0063755987,0.010166766,-0.2675305,-0.10188437,-0.038727507,-0.06896994,0.044739872,-0.062538706,0.26800302,0.09647097,0.115728326,0.04377015,-0.2328347,-0.070230626,-0.017921515,0.051187284,0.12268893,0.018666547,-0.050809808,0.028804287,0.11120435,0.038533103,0.061048146,-0.04562263,0.08148427,0.083079025,0.011848779,-0.16834593,-0.009408026,0.14771616,0.12821156,-0.041432098,-0.022199275,-0.05057818,0.15487374,0.21265587,-0.19524735,0.04412154,-0.13119762,0.06490948,0.082889296,0.1469424,0.065871835,0.025482347,0.08211063,-0.04548903,0.078824736,0.12764084,-0.1337557,-0.16052118,0.020184165,0.0816641,0.036678433,-0.20733438,-0.010325889,0.23853391,0.005526755,0.09462601,-0.0275009,-0.07380008,-0.0019268343,0.100850984,-0.20341727,0.08292573,-0.19365287,0.06760396,0.09695841,0.21945852,0.057460785,0.03370551,-0.032173067,-0.0064406237,-0.02825179,-0.011271212,-0.031174185,0.0105090495,0.039403994,-0.06118924,0.0144310035,0.024939071,0.0554688,-0.08450239,-0.165501,-0.028617693,0.05180952,0.10887752,0.028844014,0.104092285,-0.0038013726,-0.0805608,0.08598599,0.026739856,0.011294504,0.11733843,-0.17963174,-0.009238332,-0.07698219,0.02246057,-0.1214331,0.15188348,0.008693235,0.04113107,0.007292566,-0.07368268,-0.15379447,0.199488,0.03839561,-0.093284614,-0.077659674,0.14180031,-0.109391674,-0.0109127965,0.059947602,0.09960918,0.026912544,-0.124846116,0.052746974,0.026776308,0.06578282,0.0677418,0.10742617,-0.048764665,-0.07575506,0.07473591,0.08625204,0.036020663,0.16484866,-0.084710635,-0.041303676,0.030296696,-0.13720758,0.026493039,0.06104942,0.04618138,-0.016315186,0.07509585,-0.08323095,-0.13358925,0.030745836,0.02555462,0.024860712,-0.029379059,-0.053571507,0.1252987,-0.019220117,0.0072083184,0.06694436,-0.14387487,0.013176883,0.007379434,-0.006409143,-0.054008935,0.09555123,-0.29278672,0.14643572,-0.11839162,-0.013311779,-0.08897017,-0.23404229,0.038376205,0.17638479,0.012365359,-0.067039244,-0.039467778,-0.17112842,-0.0717553,0.19299956,0.12849583,-0.008402688,0.22266963,0.060947035,-0.045040406,0.0039935783,0.06828391,-0.20224038,-0.0027401377,-0.110405974,0.06345614,-0.036199607,0.063919194,-0.013215712,-0.1471849,-0.024314838,0.034696467,0.045601495,0.10452542
